tree
version=v4
num_class=2
num_tree_per_iteration=2
label_index=0
max_feature_idx=7
objective=multiclass num_class:2
feature_names=font_size relative_font_size is_bold is_centered word_count starts_with_numbering text_case_UPPER text_case_Title
feature_infos=[6:32.040000915527344] [0.60240963624697752:3.2168675494792756] [0:1] [0:1] [1:19] none [0:1] [0:1]
tree_sizes=357 353 772 779 991 1002 990 1001 1099 1112 888 897 890 899 1002 1013 1000 1011 787 794 897 906 787 794 786 793 1104 1117 789 796 898 907 897 906 899 908 792 799 793 800 1010 1021 1119 1132 1011 1022 794 801 795 802 1006 1017 905 914 908 917 907 916 798 805 907 916 798 805 911 920 1134 1147 1126 1139 906 915 801 808 915 924 803 810 805 812 914 923 805 812 916 925 917 926 808 815 915 924 809 816 1252 1267 1029 1040 920 929 921 930 1031 1042 810 817 704 709 811 818 813 820 702 707 703 708 813 820 703 708 816 823 816 823 813 820 702 707 703 708 592 595 709 714 597 600 596 599 595 598 597 600 599 602 489 492 482 485 485 488 484 487 490 493 485 488 372 373 377 378 373 374 372 373 376 377 369 370 372 373 375 376 371 372 372 373 377 378

Tree=0
num_leaves=2
num_cat=0
split_feature=0
split_gain=21.7041
threshold=22.263137817382816
decision_type=2
left_child=-1
right_child=-2
leaf_value=0.049026163311390793 -2.1714306592273105
leaf_weight=1.9529150635935364 0.045035777147859446
leaf_count=954 22
internal_value=-0.00102512
internal_weight=1.99795
internal_count=976
is_linear=0
shrinkage=1


Tree=1
num_leaves=2
num_cat=0
split_feature=0
split_gain=21.7041
threshold=22.263137817382816
decision_type=2
left_child=-1
right_child=-2
leaf_value=-6.9335138651397283 -4.7130570426010268
leaf_weight=1.9529150635935364 0.045035777147859446
leaf_count=954 22
internal_value=-6.88346
internal_weight=1.99795
internal_count=976
is_linear=0
shrinkage=1


Tree=2
num_leaves=6
num_cat=0
split_feature=2 4 0 0 0
split_gain=0.622656 4.34884 0.0013224 5.75058e-05 0.000161415
threshold=1.0000000180025095e-35 4.5000000000000009 22.263137817382816 24.24532508850098 22.263137817382816
decision_type=2 2 2 2 2
left_child=2 3 -1 4 -2
right_child=1 -3 -4 -5 -6
leaf_value=0.050046394641461295 0.050046394641461114 -0.46602199123228139 0.053936912370939886 0.05393691237093981 0.053936912370939706
leaf_weight=1.533826061524451 0.1759824587497858 0.19275256828404963 2.0299006998538971 0.54130685329437256 0.27065342664718628
leaf_count=828 95 32 15 4 2
internal_value=0.0314104 -0.031528 0.0522624 0.0532439 0.052404
internal_weight=4.74442 1.1807 3.56373 0.987943 0.446636
internal_count=976 133 843 101 97
is_linear=0
shrinkage=0.1


Tree=3
num_leaves=6
num_cat=0
split_feature=2 4 0 0 0
split_gain=0.622656 4.34884 0.0013224 5.75058e-05 0.000161415
threshold=1.0000000180025095e-35 4.5000000000000009 22.263137817382816 24.24532508850098 22.263137817382816
decision_type=2 2 2 2 2
left_child=2 3 -1 4 -2
right_child=1 -3 -4 -5 -6
leaf_value=-0.050046394641461295 -0.050046394641461114 0.46602199123228139 -0.053936912370939886 -0.05393691237093981 -0.053936912370939706
leaf_weight=1.533826061524451 0.1759824587497858 0.19275256828404963 2.0299006998538971 0.54130685329437256 0.27065342664718628
leaf_count=828 95 32 15 4 2
internal_value=-0.0314104 0.031528 -0.0522624 -0.0532439 -0.052404
internal_weight=4.74442 1.1807 3.56373 0.987943 0.446636
internal_count=976 133 843 101 97
is_linear=0
shrinkage=0.1


Tree=4
num_leaves=8
num_cat=0
split_feature=2 0 0 0 4 0 4
split_gain=0.508098 2.72729 0.000967162 0.000257787 4.37386e-08 5.55112e-17 5.55112e-17
threshold=1.0000000180025095e-35 27.205007553100589 22.263137817382816 22.263137817382816 4.5000000000000009 12.401374816894533 7.5000000000000009
decision_type=2 2 2 2 2 2 2
left_child=2 3 5 4 -2 6 -1
right_child=1 -3 -4 -5 -6 -7 -8
leaf_value=0.050041977618418582 0.05004197761841838 -0.30003611674011887 0.053534325923195118 0.05353432592319507 0.050117833577417538 0.050041977618417048 0.050041977618418533
leaf_weight=0.79959691269323208 0.15924886101856806 0.27775102853775013 1.8498360738158226 0.73993442952632904 0.1454286826774478 0.035202379804104678 0.55318025406450033
leaf_count=477 95 1 15 6 31 21 330
internal_value=0.0307052 -0.0215264 0.0520372 0.0525263 0.0500782 0.050042 0.050042
internal_weight=4.56018 1.32236 3.23782 1.04461 0.304678 1.38798 1.35278
internal_count=976 133 843 132 126 828 807
is_linear=0
shrinkage=0.1


Tree=5
num_leaves=8
num_cat=0
split_feature=2 0 0 0 4 0 4
split_gain=0.508098 2.72729 0.000967162 0.000257787 4.37386e-08 5.55112e-17 5.55112e-17
threshold=1.0000000180025095e-35 27.205007553100589 22.263137817382816 22.263137817382816 4.5000000000000009 12.401374816894533 7.5000000000000009
decision_type=2 2 2 2 2 2 2
left_child=2 3 5 4 -2 6 -1
right_child=1 -3 -4 -5 -6 -7 -8
leaf_value=-0.050041977618418582 -0.05004197761841838 0.30003611674011887 -0.053534325923195118 -0.05353432592319507 -0.050117833577417538 -0.050041977618417048 -0.050041977618418533
leaf_weight=0.79959691269323208 0.15924886101856806 0.27775102853775013 1.8498360738158226 0.73993442952632904 0.1454286826774478 0.035202379804104678 0.55318025406450033
leaf_count=477 95 1 15 6 31 21 330
internal_value=-0.0307052 0.0215264 -0.0520372 -0.0525263 -0.0500782 -0.050042 -0.050042
internal_weight=4.56018 1.32236 3.23782 1.04461 0.304678 1.38798 1.35278
internal_count=976 133 843 132 126 828 807
is_linear=0
shrinkage=0.1


Tree=6
num_leaves=8
num_cat=0
split_feature=2 0 0 0 4 0 0
split_gain=0.444561 1.58986 0.000708276 0.000188602 3.23856e-08 5.55112e-17 5.55112e-17
threshold=1.0000000180025095e-35 27.205007553100589 22.263137817382816 22.263137817382816 4.5000000000000009 12.401374816894533 10.483791828155519
decision_type=2 2 2 2 2 2 2
left_child=2 3 5 4 -2 6 -1
right_child=1 -3 -4 -5 -6 -7 -8
leaf_value=0.050037981438135759 0.050037981438135537 -0.18721281796693104 0.05317546312652071 0.053175463126520661 0.050106595858675385 0.050037981438134066 0.050037981438135683
leaf_weight=0.81760767044033833 0.14410524803679414 0.3914925754070282 1.684519462287426 0.6738077849149704 0.13161733048036695 0.031854844302870444 0.40652848919853568
leaf_count=539 95 1 15 6 31 21 268
internal_value=0.0300746 -0.0176408 0.0518353 0.0522739 0.0500707 0.050038 0.050038
internal_weight=4.28153 1.34102 2.94051 0.94953 0.275723 1.25599 1.22414
internal_count=976 133 843 132 126 828 807
is_linear=0
shrinkage=0.1


Tree=7
num_leaves=8
num_cat=0
split_feature=2 0 0 0 4 0 0
split_gain=0.444561 1.58986 0.000708276 0.000188602 3.23856e-08 5.55112e-17 5.55112e-17
threshold=1.0000000180025095e-35 27.205007553100589 22.263137817382816 22.263137817382816 4.5000000000000009 12.401374816894533 10.483791828155519
decision_type=2 2 2 2 2 2 2
left_child=2 3 5 4 -2 6 -1
right_child=1 -3 -4 -5 -6 -7 -8
leaf_value=-0.050037981438135759 -0.050037981438135537 0.18721281796693104 -0.05317546312652071 -0.053175463126520661 -0.050106595858675385 -0.050037981438134066 -0.050037981438135683
leaf_weight=0.81760767044033833 0.14410524803679414 0.3914925754070282 1.684519462287426 0.6738077849149704 0.13161733048036695 0.031854844302870444 0.40652848919853568
leaf_count=539 95 1 15 6 31 21 268
internal_value=-0.0300746 0.0176408 -0.0518353 -0.0522739 -0.0500707 -0.050038 -0.050038
internal_weight=4.28153 1.34102 2.94051 0.94953 0.275723 1.25599 1.22414
internal_count=976 133 843 132 126 828 807
is_linear=0
shrinkage=0.1


Tree=8
num_leaves=9
num_cat=0
split_feature=2 0 0 0 4 0 0 0
split_gain=0.398057 1.14547 0.00051929 0.000138159 2.39819e-08 5.55112e-17 5.55112e-17 6.93889e-18
threshold=1.0000000180025095e-35 27.205007553100589 22.263137817382816 22.263137817382816 4.5000000000000009 12.401374816894533 7.2080185413360605 11.023791790008547
decision_type=2 2 2 2 2 2 2 2
left_child=2 3 5 4 7 6 -1 -2
right_child=1 -3 -4 -5 -6 -7 -8 -9
leaf_value=0.050034365528964189 0.050034365528965154 -0.14435908385563276 0.05285508731163107 0.052855087311631022 0.050096433426578046 0.050034365528963877 0.050034365528965764 0.050034365528964453
leaf_weight=0.027452793437987455 0.093339497689157946 0.4527885913848877 1.5329831466078758 0.61319325864315033 0.11911521316505969 0.028825433109887055 1.0802674217848105 0.037061271141283214
leaf_count=20 68 1 15 6 31 21 787 27
internal_value=0.0294679 -0.0155546 0.0516542 0.0520478 0.050064 0.0500344 0.0500344 0.0500344
internal_weight=3.98503 1.3155 2.66953 0.862709 0.249516 1.13655 1.10772 0.130401
internal_count=976 133 843 132 126 828 807 95
is_linear=0
shrinkage=0.1


Tree=9
num_leaves=9
num_cat=0
split_feature=2 0 0 0 4 0 0 0
split_gain=0.398057 1.14547 0.00051929 0.000138159 2.39819e-08 5.55112e-17 5.55112e-17 6.93889e-18
threshold=1.0000000180025095e-35 27.205007553100589 22.263137817382816 22.263137817382816 4.5000000000000009 12.401374816894533 7.2080185413360605 11.023791790008547
decision_type=2 2 2 2 2 2 2 2
left_child=2 3 5 4 7 6 -1 -2
right_child=1 -3 -4 -5 -6 -7 -8 -9
leaf_value=-0.050034365528964189 -0.050034365528965154 0.14435908385563276 -0.05285508731163107 -0.052855087311631022 -0.050096433426578046 -0.050034365528963877 -0.050034365528965764 -0.050034365528964453
leaf_weight=0.027452793437987455 0.093339497689157946 0.4527885913848877 1.5329831466078758 0.61319325864315033 0.11911521316505969 0.028825433109887055 1.0802674217848105 0.037061271141283214
leaf_count=20 68 1 15 6 31 21 787 27
internal_value=-0.0294679 0.0155546 -0.0516542 -0.0520478 -0.050064 -0.0500344 -0.0500344 -0.0500344
internal_weight=3.98503 1.3155 2.66953 0.862709 0.249516 1.13655 1.10772 0.130401
internal_count=976 133 843 132 126 828 807 95
is_linear=0
shrinkage=0.1


Tree=10
num_leaves=7
num_cat=0
split_feature=2 0 0 0 4 0
split_gain=0.358789 0.892158 0.000381128 0.000101322 1.77591e-08 5.55112e-17
threshold=1.0000000180025095e-35 27.205007553100589 22.263137817382816 22.263137817382816 4.5000000000000009 12.401374816894533
decision_type=2 2 2 2 2 2
left_child=2 3 5 4 -2 -1
right_child=1 -3 -4 -5 -6 -7
leaf_value=0.050031093314998158 0.050031093314997679 -0.12069602405317614 0.052568682532025734 0.052568682532025679 0.050087240100061006 0.05003109331499607
leaf_weight=1.0023688981309531 0.11799881700426362 0.48529863357543945 1.3942719250917435 0.55770877003669739 0.1077986762393266 0.026083949021995179
leaf_count=807 95 1 15 6 31 21
internal_value=0.0289303 -0.0141493 0.0514915 0.0518451 0.0500579 0.0500311
internal_weight=3.69153 1.2688 2.42272 0.783506 0.225797 1.02845
internal_count=976 133 843 132 126 828
is_linear=0
shrinkage=0.1


Tree=11
num_leaves=7
num_cat=0
split_feature=2 0 0 0 4 0
split_gain=0.358789 0.892158 0.000381128 0.000101322 1.77591e-08 5.55112e-17
threshold=1.0000000180025095e-35 27.205007553100589 22.263137817382816 22.263137817382816 4.5000000000000009 12.401374816894533
decision_type=2 2 2 2 2 2
left_child=2 3 5 4 -2 -1
right_child=1 -3 -4 -5 -6 -7
leaf_value=-0.050031093314998158 -0.050031093314997679 0.12069602405317614 -0.052568682532025734 -0.052568682532025679 -0.050087240100061006 -0.05003109331499607
leaf_weight=1.0023688981309531 0.11799881700426362 0.48529863357543945 1.3942719250917435 0.55770877003669739 0.1077986762393266 0.026083949021995179
leaf_count=807 95 1 15 6 31 21
internal_value=-0.0289303 0.0141493 -0.0514915 -0.0518451 -0.0500579 -0.0500311
internal_weight=3.69153 1.2688 2.42272 0.783506 0.225797 1.02845
internal_count=976 133 843 132 126 828
is_linear=0
shrinkage=0.1


Tree=12
num_leaves=7
num_cat=0
split_feature=2 0 0 0 4 4
split_gain=0.324298 0.724372 0.000279985 7.43813e-05 1.31523e-08 2.77556e-17
threshold=1.0000000180025095e-35 27.205007553100589 22.263137817382816 22.263137817382816 4.5000000000000009 1.5000000000000002
decision_type=2 2 2 2 2 2
left_child=2 3 5 4 -2 -1
right_child=1 -3 -4 -5 -6 -7
leaf_value=0.050028131370600318 0.050028131370599999 -0.10553410147258246 0.05231233014072998 0.052312330140729918 0.050078924539852958 0.050028131370600498
leaf_weight=0.2214191823732109 0.10677574784494959 0.49862506985664368 1.2674561887979507 0.5069824755191803 0.097555649699643254 0.70921575673855841
leaf_count=197 95 1 15 6 31 631
internal_value=0.0284587 -0.013119 0.0513452 0.0516631 0.0500524 0.0500281
internal_weight=3.40803 1.20994 2.19809 0.711314 0.204331 0.930635
internal_count=976 133 843 132 126 828
is_linear=0
shrinkage=0.1


Tree=13
num_leaves=7
num_cat=0
split_feature=2 0 0 0 4 4
split_gain=0.324298 0.724372 0.000279985 7.43813e-05 1.31523e-08 2.77556e-17
threshold=1.0000000180025095e-35 27.205007553100589 22.263137817382816 22.263137817382816 4.5000000000000009 1.5000000000000002
decision_type=2 2 2 2 2 2
left_child=2 3 5 4 -2 -1
right_child=1 -3 -4 -5 -6 -7
leaf_value=-0.050028131370600318 -0.050028131370599999 0.10553410147258246 -0.05231233014072998 -0.052312330140729918 -0.050078924539852958 -0.050028131370600498
leaf_weight=0.2214191823732109 0.10677574784494959 0.49862506985664368 1.2674561887979507 0.5069824755191803 0.097555649699643254 0.70921575673855841
leaf_count=197 95 1 15 6 31 631
internal_value=-0.0284587 0.013119 -0.0513452 -0.0516631 -0.0500524 -0.0500281
internal_weight=3.40803 1.20994 2.19809 0.711314 0.204331 0.930635
internal_count=976 133 843 132 126 828
is_linear=0
shrinkage=0.1


Tree=14
num_leaves=8
num_cat=0
split_feature=2 0 0 0 4 0 0
split_gain=0.293508 0.603501 0.000205854 5.46533e-05 9.73797e-09 2.77556e-17 3.46945e-18
threshold=1.0000000180025095e-35 27.205007553100589 22.263137817382816 22.263137817382816 4.5000000000000009 11.589474678039553 10.483791828155519
decision_type=2 2 2 2 2 2 2
left_child=2 3 5 4 6 -1 -2
right_child=1 -3 -4 -5 -6 -7 -8
leaf_value=0.050025456771048894 0.050025456771048242 -0.094967009749018561 0.052082629165386876 0.0520826291653868 0.050071401159979073 0.050025456771048006 0.050025456771047222
leaf_weight=0.79024658573325735 0.068142240983434021 0.49859565496444702 1.1516416445374487 0.46065665781497955 0.088284587021917105 0.051869467017240822 0.028477354440838099
leaf_count=777 67 1 15 6 31 51 28
internal_value=0.0280453 -0.0123269 0.0512137 0.0514997 0.0500474 0.0500255 0.0500255
internal_weight=3.13791 1.14416 1.99376 0.645561 0.184904 0.842116 0.0966196
internal_count=976 133 843 132 126 828 95
is_linear=0
shrinkage=0.1


Tree=15
num_leaves=8
num_cat=0
split_feature=2 0 0 0 4 0 0
split_gain=0.293508 0.603501 0.000205854 5.46533e-05 9.73797e-09 2.77556e-17 3.46945e-18
threshold=1.0000000180025095e-35 27.205007553100589 22.263137817382816 22.263137817382816 4.5000000000000009 11.589474678039553 10.483791828155519
decision_type=2 2 2 2 2 2 2
left_child=2 3 5 4 6 -1 -2
right_child=1 -3 -4 -5 -6 -7 -8
leaf_value=-0.050025456771048894 -0.050025456771048242 0.094967009749018561 -0.052082629165386876 -0.0520826291653868 -0.050071401159979073 -0.050025456771048006 -0.050025456771047222
leaf_weight=0.79024658573325735 0.068142240983434021 0.49859565496444702 1.1516416445374487 0.46065665781497955 0.088284587021917105 0.051869467017240822 0.028477354440838099
leaf_count=777 67 1 15 6 31 51 28
internal_value=-0.0280453 0.0123269 -0.0512137 -0.0514997 -0.0500474 -0.0500255 -0.0500255
internal_weight=3.13791 1.14416 1.99376 0.645561 0.184904 0.842116 0.0966196
internal_count=976 133 843 132 126 828 95
is_linear=0
shrinkage=0.1


Tree=16
num_leaves=8
num_cat=0
split_feature=2 0 0 0 4 0 0
split_gain=0.265812 0.511631 0.000151464 4.01904e-05 7.21254e-09 2.77556e-17 3.46945e-18
threshold=1.0000000180025095e-35 27.205007553100589 22.263137817382816 22.263137817382816 4.5000000000000009 12.401374816894533 10.483791828155519
decision_type=2 2 2 2 2 2 2
left_child=2 3 5 4 6 -1 -2
right_child=1 -3 -4 -5 -6 -7 -8
leaf_value=0.050023028660340974 0.050023028660340245 -0.087188333862017534 0.051876606768952074 0.051876606768951998 0.050064594627605478 0.050023028660338469 0.050023028660339114
leaf_weight=0.74268676870269712 0.061660487612243742 0.48920395970344543 1.0459757968783376 0.41839031875133514 0.079893505200743675 0.019326421490404755 0.02576856198720634
leaf_count=807 67 1 15 6 31 21 28
internal_value=0.0276821 -0.0116985 0.0510954 0.0513528 0.0500429 0.050023 0.050023
internal_weight=2.88291 1.07492 1.80799 0.585713 0.167323 0.762013 0.087429
internal_count=976 133 843 132 126 828 95
is_linear=0
shrinkage=0.1


Tree=17
num_leaves=8
num_cat=0
split_feature=2 0 0 0 4 0 0
split_gain=0.265812 0.511631 0.000151464 4.01904e-05 7.21254e-09 2.77556e-17 3.46945e-18
threshold=1.0000000180025095e-35 27.205007553100589 22.263137817382816 22.263137817382816 4.5000000000000009 12.401374816894533 10.483791828155519
decision_type=2 2 2 2 2 2 2
left_child=2 3 5 4 6 -1 -2
right_child=1 -3 -4 -5 -6 -7 -8
leaf_value=-0.050023028660340974 -0.050023028660340245 0.087188333862017534 -0.051876606768952074 -0.051876606768951998 -0.050064594627605478 -0.050023028660338469 -0.050023028660339114
leaf_weight=0.74268676870269712 0.061660487612243742 0.48920395970344543 1.0459757968783376 0.41839031875133514 0.079893505200743675 0.019326421490404755 0.02576856198720634
leaf_count=807 67 1 15 6 31 21 28
internal_value=-0.0276821 0.0116985 -0.0510954 -0.0513528 -0.0500429 -0.050023 -0.050023
internal_weight=2.88291 1.07492 1.80799 0.585713 0.167323 0.762013 0.087429
internal_count=976 133 843 132 126 828 95
is_linear=0
shrinkage=0.1


Tree=18
num_leaves=6
num_cat=0
split_feature=2 0 0 0 4
split_gain=0.240801 0.439181 0.00011152 2.95763e-05 5.34214e-09
threshold=1.0000000180025095e-35 27.205007553100589 22.263137817382816 22.263137817382816 4.5000000000000009
decision_type=2 2 2 2 2
left_child=2 3 -1 4 -2
right_child=1 -3 -4 -5 -6
leaf_value=0.050020836335997701 0.050020836335997132 -0.081237473071412422 0.051691665083817964 0.051691665083817888 0.050058441566868228
leaf_weight=0.68952673254534602 0.079112366656772792 0.47332897782325745 0.94965152442455292 0.37986060976982117 0.072299068095162511
leaf_count=828 95 1 15 6 31
internal_value=0.0273623 -0.0111885 0.0509888 0.0512206 0.0500388
internal_weight=2.64378 1.0046 1.63918 0.531272 0.151411
internal_count=976 133 843 132 126
is_linear=0
shrinkage=0.1


Tree=19
num_leaves=6
num_cat=0
split_feature=2 0 0 0 4
split_gain=0.240801 0.439181 0.00011152 2.95763e-05 5.34214e-09
threshold=1.0000000180025095e-35 27.205007553100589 22.263137817382816 22.263137817382816 4.5000000000000009
decision_type=2 2 2 2 2
left_child=2 3 -1 4 -2
right_child=1 -3 -4 -5 -6
leaf_value=-0.050020836335997701 -0.050020836335997132 0.081237473071412422 -0.051691665083817964 -0.051691665083817888 -0.050058441566868228
leaf_weight=0.68952673254534602 0.079112366656772792 0.47332897782325745 0.94965152442455292 0.37986060976982117 0.072299068095162511
leaf_count=828 95 1 15 6 31
internal_value=-0.0273623 0.0111885 -0.0509888 -0.0512206 -0.0500388
internal_weight=2.64378 1.0046 1.63918 0.531272 0.151411
internal_count=976 133 843 132 126
is_linear=0
shrinkage=0.1


Tree=20
num_leaves=7
num_cat=0
split_feature=2 0 0 0 4 0
split_gain=0.218169 0.380501 8.21593e-05 2.17795e-05 3.95734e-09 2.77556e-17
threshold=1.0000000180025095e-35 27.205007553100589 22.263137817382816 22.263137817382816 4.5000000000000009 12.401374816894533
decision_type=2 2 2 2 2 2
left_child=2 3 5 4 -2 -1
right_child=1 -3 -4 -5 -6 -7
leaf_value=0.050018851733606255 0.050018851733605735 -0.07655302171989109 0.051525510098233397 0.051525510098233307 0.050052876192375029 0.050018851733603188
leaf_weight=0.60810867656255163 0.071586523263249435 0.45309498906135559 0.86190998554229736 0.34476399421691895 0.065425806911662221 0.015824389352928847
leaf_count=807 95 1 15 6 31 21
internal_value=0.0270798 -0.0107675 0.0508928 0.0511017 0.0500351 0.0500189
internal_weight=2.42071 0.934871 1.48584 0.481776 0.137012 0.623933
internal_count=976 133 843 132 126 828
is_linear=0
shrinkage=0.1


Tree=21
num_leaves=7
num_cat=0
split_feature=2 0 0 0 4 0
split_gain=0.218169 0.380501 8.21593e-05 2.17795e-05 3.95734e-09 2.77556e-17
threshold=1.0000000180025095e-35 27.205007553100589 22.263137817382816 22.263137817382816 4.5000000000000009 12.401374816894533
decision_type=2 2 2 2 2 2
left_child=2 3 5 4 -2 -1
right_child=1 -3 -4 -5 -6 -7
leaf_value=-0.050018851733606255 -0.050018851733605735 0.07655302171989109 -0.051525510098233397 -0.051525510098233307 -0.050052876192375029 -0.050018851733603188
leaf_weight=0.60810867656255163 0.071586523263249435 0.45309498906135559 0.86190998554229736 0.34476399421691895 0.065425806911662221 0.015824389352928847
leaf_count=807 95 1 15 6 31 21
internal_value=-0.0270798 0.0107675 -0.0508928 -0.0511017 -0.0500351 -0.0500189
internal_weight=2.42071 0.934871 1.48584 0.481776 0.137012 0.623933
internal_count=976 133 843 132 126 828
is_linear=0
shrinkage=0.1


Tree=22
num_leaves=6
num_cat=0
split_feature=2 0 0 0 4
split_gain=0.197667 0.332018 6.05615e-05 1.60476e-05 2.93087e-09
threshold=1.0000000180025095e-35 27.205007553100589 22.263137817382816 22.263137817382816 4.5000000000000009
decision_type=2 2 2 2 2
left_child=2 3 -1 4 -2
right_child=1 -3 -4 -5 -6
leaf_value=0.050017056213626322 0.050017056213625746 -0.072783514855793555 0.051376133088315193 0.051376133088315096 0.050047837632928707
leaf_weight=0.56457720743492268 0.0647763704182579 0.43008542060852051 0.78204039484262466 0.31281615793704987 0.059205376775935292
leaf_count=828 95 1 15 6 31
internal_value=0.0268298 -0.0104153 0.0508063 0.0509945 0.0500318
internal_weight=2.2135 0.866883 1.34662 0.436798 0.123982
internal_count=976 133 843 132 126
is_linear=0
shrinkage=0.1


Tree=23
num_leaves=6
num_cat=0
split_feature=2 0 0 0 4
split_gain=0.197667 0.332018 6.05615e-05 1.60476e-05 2.93087e-09
threshold=1.0000000180025095e-35 27.205007553100589 22.263137817382816 22.263137817382816 4.5000000000000009
decision_type=2 2 2 2 2
left_child=2 3 -1 4 -2
right_child=1 -3 -4 -5 -6
leaf_value=-0.050017056213626322 -0.050017056213625746 0.072783514855793555 -0.051376133088315193 -0.051376133088315096 -0.050047837632928707
leaf_weight=0.56457720743492268 0.0647763704182579 0.43008542060852051 0.78204039484262466 0.31281615793704987 0.059205376775935292
leaf_count=828 95 1 15 6 31
internal_value=-0.0268298 0.0104153 -0.0508063 -0.0509945 -0.0500318
internal_weight=2.2135 0.866883 1.34662 0.436798 0.123982
internal_count=976 133 843 132 126
is_linear=0
shrinkage=0.1


Tree=24
num_leaves=6
num_cat=0
split_feature=2 0 0 0 4
split_gain=0.179085 0.29134 4.46629e-05 1.18304e-05 2.17071e-09
threshold=1.0000000180025095e-35 27.205007553100589 22.263137817382816 22.263137817382816 4.5000000000000009
decision_type=2 2 2 2 2
left_child=2 3 -1 4 -2
right_child=1 -3 -4 -5 -6
leaf_value=0.050015434284054298 0.050015434284053653 -0.069697075935451547 0.051241754536875489 0.051241754536875378 0.050043282222520816
leaf_weight=0.51086634700186573 0.05861389247002069 0.40548303723335266 0.70938058197498322 0.28375223278999329 0.053575867437757552
leaf_count=828 95 1 15 6 31
internal_value=0.0266081 -0.0101174 0.0507283 0.050898 0.0500287
internal_weight=2.02167 0.801425 1.22025 0.395942 0.11219
internal_count=976 133 843 132 126
is_linear=0
shrinkage=0.1


Tree=25
num_leaves=6
num_cat=0
split_feature=2 0 0 0 4
split_gain=0.179085 0.29134 4.46629e-05 1.18304e-05 2.17071e-09
threshold=1.0000000180025095e-35 27.205007553100589 22.263137817382816 22.263137817382816 4.5000000000000009
decision_type=2 2 2 2 2
left_child=2 3 -1 4 -2
right_child=1 -3 -4 -5 -6
leaf_value=-0.050015434284054298 -0.050015434284053653 0.069697075935451547 -0.051241754536875489 -0.051241754536875378 -0.050043282222520816
leaf_weight=0.51086634700186573 0.05861389247002069 0.40548303723335266 0.70938058197498322 0.28375223278999329 0.053575867437757552
leaf_count=828 95 1 15 6 31
internal_value=-0.0266081 0.0101174 -0.0507283 -0.050898 -0.0500287
internal_weight=2.02167 0.801425 1.22025 0.395942 0.11219
internal_count=976 133 843 132 126
is_linear=0
shrinkage=0.1


Tree=26
num_leaves=9
num_cat=0
split_feature=2 0 0 0 4 4 0 0
split_gain=0.162239 0.256798 3.29526e-05 8.72561e-06 1.60753e-09 1.38778e-17 1.73472e-18 1.73472e-18
threshold=1.0000000180025095e-35 27.205007553100589 22.263137817382816 22.263137817382816 4.5000000000000009 16.500000000000004 9.8522000312805194 10.483791828155519
decision_type=2 2 2 2 2 2 2 2
left_child=2 3 5 4 6 -1 -2 -8
right_child=1 -3 -4 -5 -6 -7 7 -9
leaf_value=0.050013965717421782 0.050013965717418563 -0.06713419892651 0.051120800223894175 0.05112080022389405 0.05003915841818795 0.050013965717419839 0.050013965717419451 0.050013965717418674
leaf_weight=0.43769912421703316 0.016748690977692715 0.38016852736473083 0.64331542700529099 0.25732617080211639 0.048481240286491811 0.024564746767282486 0.020656718872487545 0.015632111579179764
leaf_count=784 30 1 15 6 31 44 37 28
internal_value=0.0264109 -0.00986317 0.050658 0.0508111 0.050026 0.050014 0.050014 0.050014
internal_weight=1.84459 0.739013 1.10558 0.358845 0.101519 0.462264 0.0530375 0.0362888
internal_count=976 133 843 132 126 828 95 65
is_linear=0
shrinkage=0.1


Tree=27
num_leaves=9
num_cat=0
split_feature=2 0 0 0 4 4 0 0
split_gain=0.162239 0.256798 3.29526e-05 8.72561e-06 1.60753e-09 1.38778e-17 1.73472e-18 1.73472e-18
threshold=1.0000000180025095e-35 27.205007553100589 22.263137817382816 22.263137817382816 4.5000000000000009 16.500000000000004 9.8522000312805194 10.483791828155519
decision_type=2 2 2 2 2 2 2 2
left_child=2 3 5 4 6 -1 -2 -8
right_child=1 -3 -4 -5 -6 -7 7 -9
leaf_value=-0.050013965717421782 -0.050013965717418563 0.06713419892651 -0.051120800223894175 -0.05112080022389405 -0.05003915841818795 -0.050013965717419839 -0.050013965717419451 -0.050013965717418674
leaf_weight=0.43769912421703316 0.016748690977692715 0.38016852736473083 0.64331542700529099 0.25732617080211639 0.048481240286491811 0.024564746767282486 0.020656718872487545 0.015632111579179764
leaf_count=784 30 1 15 6 31 44 37 28
internal_value=-0.0264109 0.00986317 -0.050658 -0.0508111 -0.050026 -0.050014 -0.050014 -0.050014
internal_weight=1.84459 0.739013 1.10558 0.358845 0.101519 0.462264 0.0530375 0.0362888
internal_count=976 133 843 132 126 828 95 65
is_linear=0
shrinkage=0.1


Tree=28
num_leaves=6
num_cat=0
split_feature=2 0 0 0 4
split_gain=0.146966 0.227182 2.43224e-05 6.43843e-06 1.19101e-09
threshold=1.0000000180025095e-35 27.205007553100589 22.263137817382816 22.263137817382816 4.5000000000000009
decision_type=2 2 2 2 2
left_child=2 3 -1 4 -2
right_child=1 -3 -4 -5 -6
leaf_value=0.050012634197298025 0.050012634197296957 -0.06498137817154441 0.05101187253685352 0.051011872536853388 0.050035430045648255
leaf_weight=0.4182842052541671 0.047991545288823656 0.35479205846786499 0.58327557519078255 0.23331023007631302 0.043870743713341653
leaf_count=828 95 1 15 6 31
internal_value=0.0262354 -0.00964463 0.0505946 0.0507327 0.0500235
internal_weight=1.68152 0.679965 1.00156 0.325173 0.0918623
internal_count=976 133 843 132 126
is_linear=0
shrinkage=0.1


Tree=29
num_leaves=6
num_cat=0
split_feature=2 0 0 0 4
split_gain=0.146966 0.227182 2.43224e-05 6.43843e-06 1.19101e-09
threshold=1.0000000180025095e-35 27.205007553100589 22.263137817382816 22.263137817382816 4.5000000000000009
decision_type=2 2 2 2 2
left_child=2 3 -1 4 -2
right_child=1 -3 -4 -5 -6
leaf_value=-0.050012634197298025 -0.050012634197296957 0.06498137817154441 -0.05101187253685352 -0.051011872536853388 -0.050035430045648255
leaf_weight=0.4182842052541671 0.047991545288823656 0.35479205846786499 0.58327557519078255 0.23331023007631302 0.043870743713341653
leaf_count=828 95 1 15 6 31
internal_value=-0.0262354 0.00964463 -0.0505946 -0.0507327 -0.0500235
internal_weight=1.68152 0.679965 1.00156 0.325173 0.0918623
internal_count=976 133 843 132 126
is_linear=0
shrinkage=0.1


Tree=30
num_leaves=7
num_cat=0
split_feature=2 0 0 0 4 4
split_gain=0.13312 0.20159 1.79588e-05 4.75262e-06 8.81979e-10 1.38778e-17
threshold=1.0000000180025095e-35 27.205007553100589 22.263137817382816 22.263137817382816 4.5000000000000009 9.5000000000000018
decision_type=2 2 2 2 2 2
left_child=2 3 5 4 -2 -1
right_child=1 -3 -4 -5 -6 -7
leaf_value=0.050011431783260576 0.050011431783259619 -0.063155570173377626 0.050913731152009457 0.050913731152009312 0.050032053892719475 0.050011431783260389
leaf_weight=0.25049677432980388 0.043425535695860162 0.32982707023620605 0.52873509004712105 0.21149403601884842 0.039698433130979538 0.12799105257727206
leaf_count=548 95 1 15 6 31 280
internal_value=0.0260788 -0.00945559 0.0505373 0.0506619 0.0500213 0.0500114
internal_weight=1.53167 0.624445 0.907223 0.294618 0.083124 0.378488
internal_count=976 133 843 132 126 828
is_linear=0
shrinkage=0.1


Tree=31
num_leaves=7
num_cat=0
split_feature=2 0 0 0 4 4
split_gain=0.13312 0.20159 1.79588e-05 4.75262e-06 8.81979e-10 1.38778e-17
threshold=1.0000000180025095e-35 27.205007553100589 22.263137817382816 22.263137817382816 4.5000000000000009 9.5000000000000018
decision_type=2 2 2 2 2 2
left_child=2 3 5 4 -2 -1
right_child=1 -3 -4 -5 -6 -7
leaf_value=-0.050011431783260576 -0.050011431783259619 0.063155570173377626 -0.050913731152009457 -0.050913731152009312 -0.050032053892719475 -0.050011431783260389
leaf_weight=0.25049677432980388 0.043425535695860162 0.32982707023620605 0.52873509004712105 0.21149403601884842 0.039698433130979538 0.12799105257727206
leaf_count=548 95 1 15 6 31 280
internal_value=-0.0260788 0.00945559 -0.0505373 -0.0506619 -0.0500213 -0.0500114
internal_weight=1.53167 0.624445 0.907223 0.294618 0.083124 0.378488
internal_count=976 133 843 132 126 828
is_linear=0
shrinkage=0.1


Tree=32
num_leaves=7
num_cat=0
split_feature=2 0 0 0 4 0
split_gain=0.120568 0.179334 1.32642e-05 3.50938e-06 6.53435e-10 1.38778e-17
threshold=1.0000000180025095e-35 27.205007553100589 22.263137817382816 22.263137817382816 4.5000000000000009 7.2080185413360605
decision_type=2 2 2 2 2 2
left_child=2 3 5 4 -2 -1
right_child=1 -3 -4 -5 -6 -7
leaf_value=0.050010343472956444 0.050010343472961211 -0.061594533538301237 0.050825265077619565 0.050825265077619412 0.050029003444848369 0.050010343472962328
leaf_weight=0.0082723918603733182 0.039293861336773261 0.3056110143661499 0.47920960932970047 0.19168384373188019 0.035922705428674817 0.33420463115908206
leaf_count=20 95 1 15 6 31 808
internal_value=0.025939 -0.00929118 0.0504856 0.0505981 0.0500193 0.0500103
internal_weight=1.3942 0.572511 0.821687 0.2669 0.0752166 0.342477
internal_count=976 133 843 132 126 828
is_linear=0
shrinkage=0.1


Tree=33
num_leaves=7
num_cat=0
split_feature=2 0 0 0 4 0
split_gain=0.120568 0.179334 1.32642e-05 3.50938e-06 6.53435e-10 1.38778e-17
threshold=1.0000000180025095e-35 27.205007553100589 22.263137817382816 22.263137817382816 4.5000000000000009 7.2080185413360605
decision_type=2 2 2 2 2 2
left_child=2 3 5 4 -2 -1
right_child=1 -3 -4 -5 -6 -7
leaf_value=-0.050010343472956444 -0.050010343472961211 0.061594533538301237 -0.050825265077619565 -0.050825265077619412 -0.050029003444848369 -0.050010343472962328
leaf_weight=0.0082723918603733182 0.039293861336773261 0.3056110143661499 0.47920960932970047 0.19168384373188019 0.035922705428674817 0.33420463115908206
leaf_count=20 95 1 15 6 31 808
internal_value=-0.025939 0.00929118 -0.0504856 -0.0505981 -0.0500193 -0.0500103
internal_weight=1.3942 0.572511 0.821687 0.2669 0.0752166 0.342477
internal_count=976 133 843 132 126 828
is_linear=0
shrinkage=0.1


Tree=34
num_leaves=7
num_cat=0
split_feature=2 0 0 0 4 0
split_gain=0.10919 0.159876 9.79979e-06 2.5922e-06 4.83928e-10 1.38778e-17
threshold=1.0000000180025095e-35 27.205007553100589 22.263137817382816 22.263137817382816 4.5000000000000009 9.5727000236511248
decision_type=2 2 2 2 2 2
left_child=2 3 5 4 -2 -1
right_child=1 -3 -4 -5 -6 -7
leaf_value=0.050009358720411692 0.050009358720413066 -0.060250688311853956 0.050745498887086904 0.050745498887086737 0.050026240075315864 0.050009358720414301
leaf_weight=0.017964743077754974 0.035555220674723387 0.28237679600715637 0.43425369076430798 0.17370147630572319 0.032505912822671235 0.29192707501351833
leaf_count=48 95 1 15 6 31 780
internal_value=0.0258139 -0.00914754 0.0504389 0.0505405 0.0500174 0.0500094
internal_weight=1.26828 0.524139 0.744146 0.241763 0.0680611 0.309892
internal_count=976 133 843 132 126 828
is_linear=0
shrinkage=0.1


Tree=35
num_leaves=7
num_cat=0
split_feature=2 0 0 0 4 0
split_gain=0.10919 0.159876 9.79979e-06 2.5922e-06 4.83928e-10 1.38778e-17
threshold=1.0000000180025095e-35 27.205007553100589 22.263137817382816 22.263137817382816 4.5000000000000009 9.5727000236511248
decision_type=2 2 2 2 2 2
left_child=2 3 5 4 -2 -1
right_child=1 -3 -4 -5 -6 -7
leaf_value=-0.050009358720411692 -0.050009358720413066 0.060250688311853956 -0.050745498887086904 -0.050745498887086737 -0.050026240075315864 -0.050009358720414301
leaf_weight=0.017964743077754974 0.035555220674723387 0.28237679600715637 0.43425369076430798 0.17370147630572319 0.032505912822671235 0.29192707501351833
leaf_count=48 95 1 15 6 31 780
internal_value=-0.0258139 0.00914754 -0.0504389 -0.0505405 -0.0500174 -0.0500094
internal_weight=1.26828 0.524139 0.744146 0.241763 0.0680611 0.309892
internal_count=976 133 843 132 126 828
is_linear=0
shrinkage=0.1


Tree=36
num_leaves=6
num_cat=0
split_feature=2 0 0 0 4
split_gain=0.0988785 0.142787 7.24204e-06 1.91525e-06 3.58509e-10
threshold=1.0000000180025095e-35 27.205007553100589 22.263137817382816 22.263137817382816 4.5000000000000009
decision_type=2 2 2 2 2
left_child=2 3 -1 4 -2
right_child=1 -3 -4 -5 -6
leaf_value=0.050008469331052442 0.050008469331051068 -0.05908699259491295 0.050673548623859338 0.050673548623859144 0.050023744083378223
leaf_weight=0.28040645574219525 0.032172238279599696 0.26027727127075195 0.39345849305391312 0.15738339722156525 0.029413960466627032
leaf_count=828 95 1 15 6 31
internal_value=0.0257018 -0.00902154 0.0503968 0.0504885 0.0500158
internal_weight=1.15311 0.479247 0.673865 0.21897 0.0615862
internal_count=976 133 843 132 126
is_linear=0
shrinkage=0.1


Tree=37
num_leaves=6
num_cat=0
split_feature=2 0 0 0 4
split_gain=0.0988785 0.142787 7.24204e-06 1.91525e-06 3.58509e-10
threshold=1.0000000180025095e-35 27.205007553100589 22.263137817382816 22.263137817382816 4.5000000000000009
decision_type=2 2 2 2 2
left_child=2 3 -1 4 -2
right_child=1 -3 -4 -5 -6
leaf_value=-0.050008469331052442 -0.050008469331051068 0.05908699259491295 -0.050673548623859338 -0.050673548623859144 -0.050023744083378223
leaf_weight=0.28040645574219525 0.032172238279599696 0.26027727127075195 0.39345849305391312 0.15738339722156525 0.029413960466627032
leaf_count=828 95 1 15 6 31
internal_value=-0.0257018 0.00902154 -0.0503968 -0.0504885 -0.0500158
internal_weight=1.15311 0.479247 0.673865 0.21897 0.0615862
internal_count=976 133 843 132 126
is_linear=0
shrinkage=0.1


Tree=38
num_leaves=6
num_cat=0
split_feature=2 0 0 0 4
split_gain=0.0895341 0.127723 5.3532e-06 1.41547e-06 2.65412e-10
threshold=1.0000000180025095e-35 27.205007553100589 22.263137817382816 22.263137817382816 4.5000000000000009
decision_type=2 2 2 2 2
left_child=2 3 -1 4 -2
right_child=1 -3 -4 -5 -6
leaf_value=0.050007664588489757 0.050007664588488238 -0.058074169771072971 0.050608634499574673 0.050608634499574458 0.050021480919030283
leaf_weight=0.25372612138744444 0.029111088806530461 0.23940415680408478 0.35644940100610256 0.14257976040244102 0.026615994283929467
leaf_count=828 95 1 15 6 31
internal_value=0.0256014 -0.00891063 0.0503587 0.0504416 0.0500143
internal_weight=1.04789 0.437711 0.610176 0.198307 0.0557271
internal_count=976 133 843 132 126
is_linear=0
shrinkage=0.1


Tree=39
num_leaves=6
num_cat=0
split_feature=2 0 0 0 4
split_gain=0.0895341 0.127723 5.3532e-06 1.41547e-06 2.65412e-10
threshold=1.0000000180025095e-35 27.205007553100589 22.263137817382816 22.263137817382816 4.5000000000000009
decision_type=2 2 2 2 2
left_child=2 3 -1 4 -2
right_child=1 -3 -4 -5 -6
leaf_value=-0.050007664588489757 -0.050007664588488238 0.058074169771072971 -0.050608634499574673 -0.050608634499574458 -0.050021480919030283
leaf_weight=0.25372612138744444 0.029111088806530461 0.23940415680408478 0.35644940100610256 0.14257976040244102 0.026615994283929467
leaf_count=828 95 1 15 6 31
internal_value=-0.0256014 0.00891063 -0.0503587 -0.0504416 -0.0500143
internal_weight=1.04789 0.437711 0.610176 0.198307 0.0557271
internal_count=976 133 843 132 126
is_linear=0
shrinkage=0.1


Tree=40
num_leaves=8
num_cat=0
split_feature=2 0 0 0 4 4 0
split_gain=0.0810674 0.1144 3.95789e-06 1.04635e-06 1.96761e-10 6.93889e-18 8.67362e-19
threshold=1.0000000180025095e-35 27.205007553100589 22.263137817382816 22.263137817382816 4.5000000000000009 14.500000000000002 9.8522000312805194
decision_type=2 2 2 2 2 2 2
left_child=2 3 5 4 6 -1 -2
right_child=1 -3 -4 -5 -6 -7 -8
leaf_value=0.050006932845966079 0.050006932845960334 -0.057188779343983136 0.050550047713606064 0.050550047713605828 0.050019438619849178 0.050006932845964684 0.05000693284596356
leaf_weight=0.19936105026863515 0.0083182635717093945 0.21980291604995728 0.32288353890180588 0.12915341556072235 0.024084081582259387 0.030223024310544133 0.018022904405370355
leaf_count=719 30 1 15 6 31 109 65
internal_value=0.0255113 -0.00881271 0.0503244 0.0503992 0.0500129 0.0500069 0.0500069
internal_weight=0.951849 0.399382 0.552468 0.179579 0.0504252 0.229584 0.0263412
internal_count=976 133 843 132 126 828 95
is_linear=0
shrinkage=0.1


Tree=41
num_leaves=8
num_cat=0
split_feature=2 0 0 0 4 4 0
split_gain=0.0810674 0.1144 3.95789e-06 1.04635e-06 1.96761e-10 6.93889e-18 8.67362e-19
threshold=1.0000000180025095e-35 27.205007553100589 22.263137817382816 22.263137817382816 4.5000000000000009 14.500000000000002 9.8522000312805194
decision_type=2 2 2 2 2 2 2
left_child=2 3 5 4 6 -1 -2
right_child=1 -3 -4 -5 -6 -7 -8
leaf_value=-0.050006932845966079 -0.050006932845960334 0.057188779343983136 -0.050550047713606064 -0.050550047713605828 -0.050019438619849178 -0.050006932845964684 -0.05000693284596356
leaf_weight=0.19936105026863515 0.0083182635717093945 0.21980291604995728 0.32288353890180588 0.12915341556072235 0.024084081582259387 0.030223024310544133 0.018022904405370355
leaf_count=719 30 1 15 6 31 109 65
internal_value=-0.0255113 0.00881271 -0.0503244 -0.0503992 -0.0500129 -0.0500069 -0.0500069
internal_weight=0.951849 0.399382 0.552468 0.179579 0.0504252 0.229584 0.0263412
internal_count=976 133 843 132 126 828 95
is_linear=0
shrinkage=0.1


Tree=42
num_leaves=9
num_cat=0
split_feature=2 0 0 0 4 0 4 0
split_gain=0.0733968 0.102587 2.92671e-06 7.73626e-07 1.45643e-10 6.93889e-18 6.93889e-18 8.67362e-19
threshold=1.0000000180025095e-35 27.205007553100589 22.263137817382816 22.263137817382816 4.5000000000000009 12.401374816894533 10.500000000000002 11.023791790008547
decision_type=2 2 2 2 2 2 2 2
left_child=2 3 5 4 7 6 -1 -2
right_child=1 -3 -4 -5 -6 -7 -8 -9
leaf_value=0.050006275668906489 0.050006275668903921 -0.056411821452596593 0.050497152699131756 0.050497152699131499 0.050017586541888252 0.050006275668897364 0.050006275668906058 0.050006275668899473
leaf_weight=0.13949613843578845 0.017060678801499307 0.2014843225479126 0.29244756326079369 0.11697902530431747 0.021792943996842951 0.005268739041639491 0.062973976164357737 0.0067740930535364887
leaf_count=556 68 1 15 6 31 21 251 27
internal_value=0.0254304 -0.00872603 0.0502933 0.0503609 0.0500117 0.0500063 0.0500063 0.0500063
internal_weight=0.864277 0.364091 0.500186 0.162607 0.0456277 0.207739 0.20247 0.0238348
internal_count=976 133 843 132 126 828 807 95
is_linear=0
shrinkage=0.1


Tree=43
num_leaves=9
num_cat=0
split_feature=2 0 0 0 4 0 4 0
split_gain=0.0733968 0.102587 2.92671e-06 7.73626e-07 1.45643e-10 6.93889e-18 6.93889e-18 8.67362e-19
threshold=1.0000000180025095e-35 27.205007553100589 22.263137817382816 22.263137817382816 4.5000000000000009 12.401374816894533 10.500000000000002 11.023791790008547
decision_type=2 2 2 2 2 2 2 2
left_child=2 3 5 4 7 6 -1 -2
right_child=1 -3 -4 -5 -6 -7 -8 -9
leaf_value=-0.050006275668906489 -0.050006275668903921 0.056411821452596593 -0.050497152699131756 -0.050497152699131499 -0.050017586541888252 -0.050006275668897364 -0.050006275668906058 -0.050006275668899473
leaf_weight=0.13949613843578845 0.017060678801499307 0.2014843225479126 0.29244756326079369 0.11697902530431747 0.021792943996842951 0.005268739041639491 0.062973976164357737 0.0067740930535364887
leaf_count=556 68 1 15 6 31 21 251 27
internal_value=-0.0254304 0.00872603 -0.0502933 -0.0503609 -0.0500117 -0.0500063 -0.0500063 -0.0500063
internal_weight=0.864277 0.364091 0.500186 0.162607 0.0456277 0.207739 0.20247 0.0238348
internal_count=976 133 843 132 126 828 807 95
is_linear=0
shrinkage=0.1


Tree=44
num_leaves=8
num_cat=0
split_feature=2 0 0 0 4 0 4
split_gain=0.0664482 0.0920855 2.16465e-06 5.72114e-07 1.07873e-10 6.93889e-18 8.67362e-19
threshold=1.0000000180025095e-35 27.205007553100589 22.263137817382816 22.263137817382816 4.5000000000000009 11.023791790008547 1.5000000000000002
decision_type=2 2 2 2 2 2 2
left_child=2 3 5 4 6 -1 -2
right_child=1 -3 -4 -5 -6 -7 -8
leaf_value=0.050005679250179624 0.050005679250176287 -0.055727733327515849 0.050449399538247355 0.050449399538247064 0.050015912600929018 0.050005679250179152 0.0500056792501739
leaf_weight=0.13030910739325918 0.013394141700700857 0.18443360924720764 0.26485523208975792 0.10594209283590317 0.019719697651453316 0.057662915118271485 0.008172696630936116
leaf_count=574 59 1 15 6 31 254 36
internal_value=0.0253577 -0.00864913 0.0502652 0.0503263 0.0500106 0.0500057 0.0500057
internal_weight=0.784489 0.331662 0.452827 0.147229 0.0412865 0.187972 0.0215668
internal_count=976 133 843 132 126 828 95
is_linear=0
shrinkage=0.1


Tree=45
num_leaves=8
num_cat=0
split_feature=2 0 0 0 4 0 4
split_gain=0.0664482 0.0920855 2.16465e-06 5.72114e-07 1.07873e-10 6.93889e-18 8.67362e-19
threshold=1.0000000180025095e-35 27.205007553100589 22.263137817382816 22.263137817382816 4.5000000000000009 11.023791790008547 1.5000000000000002
decision_type=2 2 2 2 2 2 2
left_child=2 3 5 4 6 -1 -2
right_child=1 -3 -4 -5 -6 -7 -8
leaf_value=-0.050005679250179624 -0.050005679250176287 0.055727733327515849 -0.050449399538247355 -0.050449399538247064 -0.050015912600929018 -0.050005679250179152 -0.0500056792501739
leaf_weight=0.13030910739325918 0.013394141700700857 0.18443360924720764 0.26485523208975792 0.10594209283590317 0.019719697651453316 0.057662915118271485 0.008172696630936116
leaf_count=574 59 1 15 6 31 254 36
internal_value=-0.0253577 0.00864913 -0.0502652 -0.0503263 -0.0500106 -0.0500057 -0.0500057
internal_weight=0.784489 0.331662 0.452827 0.147229 0.0412865 0.187972 0.0215668
internal_count=976 133 843 132 126 828 95
is_linear=0
shrinkage=0.1


Tree=46
num_leaves=6
num_cat=0
split_feature=2 0 0 0 4
split_gain=0.0601544 0.082732 1.60125e-06 4.23151e-07 7.99979e-11
threshold=1.0000000180025095e-35 27.205007553100589 22.263137817382816 22.263137817382816 4.5000000000000009
decision_type=2 2 2 2 2
left_child=2 3 -1 4 -2
right_child=1 -3 -4 -5 -6
leaf_value=0.050005135943828209 0.05000513594382594 -0.055123638532138308 0.050406265686144452 0.05040626568614414 0.050014400200791009
leaf_weight=0.17008586938027292 0.019514683081069961 0.16861748695373535 0.23984556086361408 0.095938224345445633 0.017843633017037064
leaf_count=828 95 1 15 6 31
internal_value=0.0252923 -0.00858075 0.0502398 0.0502951 0.0500096
internal_weight=0.711845 0.301914 0.409931 0.133297 0.0373583
internal_count=976 133 843 132 126
is_linear=0
shrinkage=0.1


Tree=47
num_leaves=6
num_cat=0
split_feature=2 0 0 0 4
split_gain=0.0601544 0.082732 1.60125e-06 4.23151e-07 7.99979e-11
threshold=1.0000000180025095e-35 27.205007553100589 22.263137817382816 22.263137817382816 4.5000000000000009
decision_type=2 2 2 2 2
left_child=2 3 -1 4 -2
right_child=1 -3 -4 -5 -6
leaf_value=-0.050005135943828209 -0.05000513594382594 0.055123638532138308 -0.050406265686144452 -0.05040626568614414 -0.050014400200791009
leaf_weight=0.17008586938027292 0.019514683081069961 0.16861748695373535 0.23984556086361408 0.095938224345445633 0.017843633017037064
leaf_count=828 95 1 15 6 31
internal_value=-0.0252923 0.00858075 -0.0502398 -0.0502951 -0.0500096
internal_weight=0.711845 0.301914 0.409931 0.133297 0.0373583
internal_count=976 133 843 132 126
is_linear=0
shrinkage=0.1


Tree=48
num_leaves=6
num_cat=0
split_feature=2 0 0 0 4
split_gain=0.0544542 0.0743861 1.18464e-06 3.13026e-07 5.92108e-11
threshold=1.0000000180025095e-35 27.205007553100589 22.263137817382816 22.263137817382816 4.5000000000000009
decision_type=2 2 2 2 2
left_child=2 3 -1 4 -2
right_child=1 -3 -4 -5 -6
leaf_value=0.050004646526187024 0.050004646526184519 -0.054588796612680172 0.050367303897090744 0.05036730389709039 0.050013025337099448
leaf_weight=0.15390149090671912 0.017657779753790237 0.15398965775966644 0.21718057338148355 0.086872229352593422 0.01614600740140304
leaf_count=828 95 1 15 6 31
internal_value=0.0252335 -0.00851984 0.0502169 0.0502668 0.0500086
internal_weight=0.645748 0.274666 0.371082 0.120676 0.0338038
internal_count=976 133 843 132 126
is_linear=0
shrinkage=0.1


Tree=49
num_leaves=6
num_cat=0
split_feature=2 0 0 0 4
split_gain=0.0544542 0.0743861 1.18464e-06 3.13026e-07 5.92108e-11
threshold=1.0000000180025095e-35 27.205007553100589 22.263137817382816 22.263137817382816 4.5000000000000009
decision_type=2 2 2 2 2
left_child=2 3 -1 4 -2
right_child=1 -3 -4 -5 -6
leaf_value=-0.050004646526187024 -0.050004646526184519 0.054588796612680172 -0.050367303897090744 -0.05036730389709039 -0.050013025337099448
leaf_weight=0.15390149090671912 0.017657779753790237 0.15398965775966644 0.21718057338148355 0.086872229352593422 0.01614600740140304
leaf_count=828 95 1 15 6 31
internal_value=-0.0252335 0.00851984 -0.0502169 -0.0502668 -0.0500086
internal_weight=0.645748 0.274666 0.371082 0.120676 0.0338038
internal_count=976 133 843 132 126
is_linear=0
shrinkage=0.1


Tree=50
num_leaves=8
num_cat=0
split_feature=2 0 0 0 4 0 0
split_gain=0.049292 0.0669275 8.7655e-07 2.31592e-07 4.38925e-11 6.93889e-18 2.1684e-19
threshold=1.0000000180025095e-35 27.205007553100589 22.263137817382816 22.263137817382816 4.5000000000000009 9.1900868415832537 7.2080185413360605
decision_type=2 2 2 2 2 2 2
left_child=2 3 5 4 -2 6 -1
right_child=1 -3 -4 -5 -6 -7 -8
leaf_value=0.0500042050361649 0.05000420503617662 -0.054114184640427866 0.050332108034409087 0.050332108034408712 0.05001178886191196 0.050004205036179375 0.050004205036167863
leaf_weight=0.0033636955777183166 0.015977553994162008 0.14049509167671204 0.19664354156702757 0.078657416626811028 0.014609854581067339 0.13168868186767213 0.0042046194721478969
leaf_count=20 95 1 15 6 31 783 25
internal_value=0.0251805 -0.0084655 0.0501962 0.0502413 0.0500078 0.0500042 0.0500042
internal_weight=0.58564 0.24974 0.335901 0.109245 0.0305874 0.139257 0.00756832
internal_count=976 133 843 132 126 828 45
is_linear=0
shrinkage=0.1


Tree=51
num_leaves=8
num_cat=0
split_feature=2 0 0 0 4 0 0
split_gain=0.049292 0.0669275 8.7655e-07 2.31592e-07 4.38925e-11 6.93889e-18 2.1684e-19
threshold=1.0000000180025095e-35 27.205007553100589 22.263137817382816 22.263137817382816 4.5000000000000009 9.1900868415832537 7.2080185413360605
decision_type=2 2 2 2 2 2 2
left_child=2 3 5 4 -2 6 -1
right_child=1 -3 -4 -5 -6 -7 -8
leaf_value=-0.0500042050361649 -0.05000420503617662 0.054114184640427866 -0.050332108034409087 -0.050332108034408712 -0.05001178886191196 -0.050004205036179375 -0.050004205036167863
leaf_weight=0.0033636955777183166 0.015977553994162008 0.14049509167671204 0.19664354156702757 0.078657416626811028 0.014609854581067339 0.13168868186767213 0.0042046194721478969
leaf_count=20 95 1 15 6 31 783 25
internal_value=-0.0251805 0.0084655 -0.0501962 -0.0502413 -0.0500078 -0.0500042 -0.0500042
internal_weight=0.58564 0.24974 0.335901 0.109245 0.0305874 0.139257 0.00756832
internal_count=976 133 843 132 126 828 45
is_linear=0
shrinkage=0.1


Tree=52
num_leaves=7
num_cat=0
split_feature=2 0 0 0 4 0
split_gain=0.0446175 0.0602529 6.48652e-07 1.71366e-07 3.24766e-11 4.33681e-19
threshold=1.0000000180025095e-35 27.205007553100589 22.263137817382816 22.263137817382816 4.5000000000000009 10.483791828155519
decision_type=2 2 2 2 2 2
left_child=2 3 -1 4 5 -2
right_child=1 -3 -4 -5 -6 -7
leaf_value=0.050003805771404133 0.050003805771399623 -0.053692156958104975 0.050300304447443302 0.050300304447442878 0.050010663656861382 0.050003805771392774
leaf_weight=0.12600589584326372 0.010196129253017716 0.1280733048915863 0.17803721129894257 0.071214884519577026 0.013219825108535588 0.0042610689415596434
leaf_count=828 67 1 15 6 31 28
internal_value=0.0251328 -0.00841695 0.0501774 0.0502182 0.0500071 0.0500038
internal_weight=0.531008 0.226965 0.304043 0.0988919 0.027677 0.0144572
internal_count=976 133 843 132 126 95
is_linear=0
shrinkage=0.1


Tree=53
num_leaves=7
num_cat=0
split_feature=2 0 0 0 4 0
split_gain=0.0446175 0.0602529 6.48652e-07 1.71366e-07 3.24766e-11 4.33681e-19
threshold=1.0000000180025095e-35 27.205007553100589 22.263137817382816 22.263137817382816 4.5000000000000009 10.483791828155519
decision_type=2 2 2 2 2 2
left_child=2 3 -1 4 5 -2
right_child=1 -3 -4 -5 -6 -7
leaf_value=-0.050003805771404133 -0.050003805771399623 0.053692156958104975 -0.050300304447443302 -0.050300304447442878 -0.050010663656861382 -0.050003805771392774
leaf_weight=0.12600589584326372 0.010196129253017716 0.1280733048915863 0.17803721129894257 0.071214884519577026 0.013219825108535588 0.0042610689415596434
leaf_count=828 67 1 15 6 31 28
internal_value=-0.0251328 0.00841695 -0.0501774 -0.0502182 -0.0500071 -0.0500038
internal_weight=0.531008 0.226965 0.304043 0.0988919 0.027677 0.0144572
internal_count=976 133 843 132 126 95
is_linear=0
shrinkage=0.1


Tree=54
num_leaves=7
num_cat=0
split_feature=2 0 0 0 4 4
split_gain=0.0403848 0.0542728 4.80068e-07 1.26816e-07 2.41011e-11 8.67362e-19
threshold=1.0000000180025095e-35 27.205007553100589 22.263137817382816 22.263137817382816 4.5000000000000009 1.5000000000000002
decision_type=2 2 2 2 2 2
left_child=2 3 -1 4 5 -2
right_child=1 -3 -4 -5 -6 -7
leaf_value=0.050003439830702823 0.050003439830697119 -0.053316224883772682 0.050271562302497866 0.050271562302497401 0.050009650448604039 0.050003439830693164
leaf_weight=0.11401563679100946 0.0081243026215815917 0.11666085571050644 0.16118215397000313 0.064472861588001251 0.011962023010710254 0.0049572015996091076
leaf_count=828 59 1 15 6 31 36
internal_value=0.0250898 -0.00837351 0.0501605 0.0501974 0.0500064 0.0500034
internal_weight=0.481375 0.206177 0.275198 0.0895164 0.0250435 0.0130815
internal_count=976 133 843 132 126 95
is_linear=0
shrinkage=0.1


Tree=55
num_leaves=7
num_cat=0
split_feature=2 0 0 0 4 4
split_gain=0.0403848 0.0542728 4.80068e-07 1.26816e-07 2.41011e-11 8.67362e-19
threshold=1.0000000180025095e-35 27.205007553100589 22.263137817382816 22.263137817382816 4.5000000000000009 1.5000000000000002
decision_type=2 2 2 2 2 2
left_child=2 3 -1 4 5 -2
right_child=1 -3 -4 -5 -6 -7
leaf_value=-0.050003439830702823 -0.050003439830697119 0.053316224883772682 -0.050271562302497866 -0.050271562302497401 -0.050009650448604039 -0.050003439830693164
leaf_weight=0.11401563679100946 0.0081243026215815917 0.11666085571050644 0.16118215397000313 0.064472861588001251 0.011962023010710254 0.0049572015996091076
leaf_count=828 59 1 15 6 31 36
internal_value=-0.0250898 0.00837351 -0.0501605 -0.0501974 -0.0500064 -0.0500034
internal_weight=0.481375 0.206177 0.275198 0.0895164 0.0250435 0.0130815
internal_count=976 133 843 132 126 95
is_linear=0
shrinkage=0.1


Tree=56
num_leaves=7
num_cat=0
split_feature=2 0 0 0 4 0
split_gain=0.0365526 0.0489091 3.55308e-07 9.38526e-08 1.78395e-11 4.33681e-19
threshold=1.0000000180025095e-35 27.205007553100589 22.263137817382816 22.263137817382816 4.5000000000000009 10.483791828155519
decision_type=2 2 2 2 2 2
left_child=2 3 -1 4 5 -2
right_child=1 -3 -4 -5 -6 -7
leaf_value=0.050003118344684051 0.050003118344678556 -0.052980807711153412 0.050245586005268961 0.050245586005268454 0.050008735552887124 0.050003118344670194
leaf_weight=0.10316624800907448 0.0083479934983188286 0.10619324445724487 0.14591520186513662 0.058366080746054649 0.010823874064953998 0.0034887137007899591
leaf_count=828 67 1 15 6 31 28
internal_value=0.0250511 -0.00833461 0.0501452 0.0501785 0.0500058 0.0500031
internal_weight=0.436301 0.18722 0.249081 0.0810267 0.0226606 0.0118367
internal_count=976 133 843 132 126 95
is_linear=0
shrinkage=0.1


Tree=57
num_leaves=7
num_cat=0
split_feature=2 0 0 0 4 0
split_gain=0.0365526 0.0489091 3.55308e-07 9.38526e-08 1.78395e-11 4.33681e-19
threshold=1.0000000180025095e-35 27.205007553100589 22.263137817382816 22.263137817382816 4.5000000000000009 10.483791828155519
decision_type=2 2 2 2 2 2
left_child=2 3 -1 4 5 -2
right_child=1 -3 -4 -5 -6 -7
leaf_value=-0.050003118344684051 -0.050003118344678556 0.052980807711153412 -0.050245586005268961 -0.050245586005268454 -0.050008735552887124 -0.050003118344670194
leaf_weight=0.10316624800907448 0.0083479934983188286 0.10619324445724487 0.14591520186513662 0.058366080746054649 0.010823874064953998 0.0034887137007899591
leaf_count=828 67 1 15 6 31 28
internal_value=-0.0250511 0.00833461 -0.0501452 -0.0501785 -0.0500058 -0.0500031
internal_weight=0.436301 0.18722 0.249081 0.0810267 0.0226606 0.0118367
internal_count=976 133 843 132 126 95
is_linear=0
shrinkage=0.1


Tree=58
num_leaves=6
num_cat=0
split_feature=2 0 0 0 4
split_gain=0.0330831 0.044094 2.63025e-07 6.94722e-08 1.32136e-11
threshold=1.0000000180025095e-35 27.205007553100589 22.263137817382816 22.263137817382816 4.5000000000000009
decision_type=2 2 2 2 2
left_child=2 3 -1 4 -2
right_child=1 -3 -4 -5 -6
leaf_value=0.050002817047025562 0.050002817047021433 -0.052681115527179884 0.050222109738984458 0.050222109738983889 0.0500078992492392
leaf_weight=0.093349210306769237 0.010710356255003717 0.096606329083442688 0.13208812102675438 0.052835248410701752 0.0097940012929029763
leaf_count=828 95 1 15 6 31
internal_value=0.0250161 -0.00829973 0.0501313 0.0501615 0.0500052
internal_weight=0.395383 0.169946 0.225437 0.0733396 0.0205044
internal_count=976 133 843 132 126
is_linear=0
shrinkage=0.1


Tree=59
num_leaves=6
num_cat=0
split_feature=2 0 0 0 4
split_gain=0.0330831 0.044094 2.63025e-07 6.94722e-08 1.32136e-11
threshold=1.0000000180025095e-35 27.205007553100589 22.263137817382816 22.263137817382816 4.5000000000000009
decision_type=2 2 2 2 2
left_child=2 3 -1 4 -2
right_child=1 -3 -4 -5 -6
leaf_value=-0.050002817047025562 -0.050002817047021433 0.052681115527179884 -0.050222109738984458 -0.050222109738983889 -0.0500078992492392
leaf_weight=0.093349210306769237 0.010710356255003717 0.096606329083442688 0.13208812102675438 0.052835248410701752 0.0097940012929029763
leaf_count=828 95 1 15 6 31
internal_value=-0.0250161 0.00829973 -0.0501313 -0.0501615 -0.0500052
internal_weight=0.395383 0.169946 0.225437 0.0733396 0.0205044
internal_count=976 133 843 132 126
is_linear=0
shrinkage=0.1


Tree=60
num_leaves=7
num_cat=0
split_feature=2 0 0 0 4 0
split_gain=0.0299421 0.0397677 1.947e-07 5.14216e-08 9.80385e-12 3.46945e-18
threshold=1.0000000180025095e-35 27.205007553100589 22.263137817382816 22.263137817382816 4.5000000000000009 9.5727000236511248
decision_type=2 2 2 2 2 2
left_child=2 3 5 4 -2 -1
right_child=1 -3 -4 -5 -6 -7
leaf_value=0.050002549841182832 0.050002549841187884 -0.052412999720933509 0.050200878969631726 0.050200878969631095 0.050007151897542949 0.050002549841192415
leaf_weight=0.0048965964233502737 0.0096911804212140851 0.087837353348731995 0.119566242210567 0.047826496884226799 0.0088621049653738737 0.079569691879441962
leaf_count=48 95 1 15 6 31 780
internal_value=0.0249846 -0.00826844 0.0501188 0.0501461 0.0500047 0.0500025
internal_weight=0.35825 0.154217 0.204033 0.0663798 0.0185533 0.0844663
internal_count=976 133 843 132 126 828
is_linear=0
shrinkage=0.1


Tree=61
num_leaves=7
num_cat=0
split_feature=2 0 0 0 4 0
split_gain=0.0299421 0.0397677 1.947e-07 5.14216e-08 9.80385e-12 3.46945e-18
threshold=1.0000000180025095e-35 27.205007553100589 22.263137817382816 22.263137817382816 4.5000000000000009 9.5727000236511248
decision_type=2 2 2 2 2 2
left_child=2 3 5 4 -2 -1
right_child=1 -3 -4 -5 -6 -7
leaf_value=-0.050002549841182832 -0.050002549841187884 0.052412999720933509 -0.050200878969631726 -0.050200878969631095 -0.050007151897542949 -0.050002549841192415
leaf_weight=0.0048965964233502737 0.0096911804212140851 0.087837353348731995 0.119566242210567 0.047826496884226799 0.0088621049653738737 0.079569691879441962
leaf_count=48 95 1 15 6 31 780
internal_value=-0.0249846 0.00826844 -0.0501188 -0.0501461 -0.0500047 -0.0500025
internal_weight=0.35825 0.154217 0.204033 0.0663798 0.0185533 0.0844663
internal_count=976 133 843 132 126 828
is_linear=0
shrinkage=0.1


Tree=62
num_leaves=6
num_cat=0
split_feature=2 0 0 0 4
split_gain=0.0270987 0.0358778 1.44146e-07 3.80687e-08 7.24812e-12
threshold=1.0000000180025095e-35 27.205007553100589 22.263137817382816 22.263137817382816 4.5000000000000009
decision_type=2 2 2 2 2
left_child=2 3 -1 4 -2
right_child=1 -3 -4 -5 -6
leaf_value=0.050002309575499372 0.050002309575494334 -0.052172863017534966 0.05018169444225682 0.05018169444225612 0.050006469439150783
leaf_weight=0.076428608677815646 0.0087689828797010705 0.07982567697763443 0.10822727344930172 0.043290909379720688 0.0080188678693957627
leaf_count=828 95 1 15 6 31
internal_value=0.0249562 -0.00824033 0.0501074 0.0501321 0.0500043
internal_weight=0.32456 0.139904 0.184656 0.0600788 0.0167879
internal_count=976 133 843 132 126
is_linear=0
shrinkage=0.1


Tree=63
num_leaves=6
num_cat=0
split_feature=2 0 0 0 4
split_gain=0.0270987 0.0358778 1.44146e-07 3.80687e-08 7.24812e-12
threshold=1.0000000180025095e-35 27.205007553100589 22.263137817382816 22.263137817382816 4.5000000000000009
decision_type=2 2 2 2 2
left_child=2 3 -1 4 -2
right_child=1 -3 -4 -5 -6
leaf_value=-0.050002309575499372 -0.050002309575494334 0.052172863017534966 -0.05018169444225682 -0.05018169444225612 -0.050006469439150783
leaf_weight=0.076428608677815646 0.0087689828797010705 0.07982567697763443 0.10822727344930172 0.043290909379720688 0.0080188678693957627
leaf_count=828 95 1 15 6 31
internal_value=-0.0249562 0.00824033 -0.0501074 -0.0501321 -0.0500043
internal_weight=0.32456 0.139904 0.184656 0.0600788 0.0167879
internal_count=976 133 843 132 126
is_linear=0
shrinkage=0.1


Tree=64
num_leaves=7
num_cat=0
split_feature=2 0 0 0 4 0
split_gain=0.0245248 0.032378 1.06722e-07 2.81831e-08 5.37835e-12 3.46945e-18
threshold=1.0000000180025095e-35 27.205007553100589 22.263137817382816 22.263137817382816 4.5000000000000009 12.401374816894533
decision_type=2 2 2 2 2 2
left_child=2 3 5 4 -2 -1
right_child=1 -3 -4 -5 -6 -7
leaf_value=0.05000208640050105 0.050002086400495485 -0.051957561055301228 0.050164340576306699 0.050164340576305921 0.050005853471225895 0.050002086400473301
leaf_weight=0.067401806154521182 0.0079345372796524316 0.072513297200202942 0.097960238344967365 0.039184095337986946 0.0072558565152576202 0.0017539503460284314
leaf_count=807 95 1 15 6 31 21
internal_value=0.0249305 -0.00821506 0.0500972 0.0501195 0.0500039 0.0500021
internal_weight=0.294004 0.126888 0.167116 0.0543745 0.0151904 0.0691558
internal_count=976 133 843 132 126 828
is_linear=0
shrinkage=0.1


Tree=65
num_leaves=7
num_cat=0
split_feature=2 0 0 0 4 0
split_gain=0.0245248 0.032378 1.06722e-07 2.81831e-08 5.37835e-12 3.46945e-18
threshold=1.0000000180025095e-35 27.205007553100589 22.263137817382816 22.263137817382816 4.5000000000000009 12.401374816894533
decision_type=2 2 2 2 2 2
left_child=2 3 5 4 -2 -1
right_child=1 -3 -4 -5 -6 -7
leaf_value=-0.05000208640050105 -0.050002086400495485 0.051957561055301228 -0.050164340576306699 -0.050164340576305921 -0.050005853471225895 -0.050002086400473301
leaf_weight=0.067401806154521182 0.0079345372796524316 0.072513297200202942 0.097960238344967365 0.039184095337986946 0.0072558565152576202 0.0017539503460284314
leaf_count=807 95 1 15 6 31 21
internal_value=-0.0249305 0.00821506 -0.0500972 -0.0501195 -0.0500039 -0.0500021
internal_weight=0.294004 0.126888 0.167116 0.0543745 0.0151904 0.0691558
internal_count=976 133 843 132 126 828
is_linear=0
shrinkage=0.1


Tree=66
num_leaves=9
num_cat=0
split_feature=2 0 0 0 4 3 0 0
split_gain=0.0221949 0.0292273 7.90141e-08 2.08661e-08 3.96961e-12 3.46945e-18 2.1684e-19 2.1684e-19
threshold=1.0000000180025095e-35 27.205007553100589 22.263137817382816 22.263137817382816 4.5000000000000009 1.0000000180025095e-35 9.8522000312805194 10.483791828155519
decision_type=2 2 2 2 2 2 2 2
left_child=2 3 5 4 6 -1 -2 -8
right_child=1 -3 -4 -5 -6 -7 7 -9
leaf_value=0.050001891831887135 0.050001891831866201 -0.051764350382066171 0.050148652586548138 0.050148652586547299 0.050005294081950813 0.050001891831885463 0.050001891831870371 0.050001891831864625
leaf_weight=0.044739577686414123 0.0022672083287034184 0.065845154225826263 0.088664407376199961 0.035465762950479984 0.006565439936821349 0.017835372185800225 0.0027962236054008827 0.0021160611067898571
leaf_count=592 30 1 15 6 31 236 37 28
internal_value=0.0249073 -0.00819234 0.0500879 0.0501081 0.0500035 0.0500019 0.0500019 0.0500019
internal_weight=0.266295 0.115056 0.151239 0.0492107 0.0137449 0.0625749 0.00717949 0.00491228
internal_count=976 133 843 132 126 828 95 65
is_linear=0
shrinkage=0.1


Tree=67
num_leaves=9
num_cat=0
split_feature=2 0 0 0 4 3 0 0
split_gain=0.0221949 0.0292273 7.90141e-08 2.08661e-08 3.96961e-12 3.46945e-18 2.1684e-19 2.1684e-19
threshold=1.0000000180025095e-35 27.205007553100589 22.263137817382816 22.263137817382816 4.5000000000000009 1.0000000180025095e-35 9.8522000312805194 10.483791828155519
decision_type=2 2 2 2 2 2 2 2
left_child=2 3 5 4 6 -1 -2 -8
right_child=1 -3 -4 -5 -6 -7 7 -9
leaf_value=-0.050001891831887135 -0.050001891831866201 0.051764350382066171 -0.050148652586548138 -0.050148652586547299 -0.050005294081950813 -0.050001891831885463 -0.050001891831870371 -0.050001891831864625
leaf_weight=0.044739577686414123 0.0022672083287034184 0.065845154225826263 0.088664407376199961 0.035465762950479984 0.006565439936821349 0.017835372185800225 0.0027962236054008827 0.0021160611067898571
leaf_count=592 30 1 15 6 31 236 37 28
internal_value=-0.0249073 0.00819234 -0.0500879 -0.0501081 -0.0500035 -0.0500019 -0.0500019 -0.0500019
internal_weight=0.266295 0.115056 0.151239 0.0492107 0.0137449 0.0625749 0.00717949 0.00491228
internal_count=976 133 843 132 126 828 95 65
is_linear=0
shrinkage=0.1


Tree=68
num_leaves=9
num_cat=0
split_feature=2 0 0 0 4 0 0 0
split_gain=0.020086 0.0263894 5.85085e-08 1.54503e-08 2.94071e-12 1.73472e-18 1.73472e-18 2.1684e-19
threshold=1.0000000180025095e-35 27.205007553100589 22.263137817382816 22.263137817382816 4.5000000000000009 12.401374816894533 11.023791790008547 9.8522000312805194
decision_type=2 2 2 2 2 2 2 2
left_child=2 3 5 4 7 6 -1 -2
right_child=1 -3 -4 -5 -6 -7 -8 -9
leaf_value=0.050001713065013588 0.050001713064990488 -0.051590829438832801 0.050134469963862484 0.05013446996386154 0.050004791512984328 0.050001713064980073 0.050001713065011721 0.05000171306500361
leaf_weight=0.039251303431228735 0.0020514618518063799 0.059769336134195328 0.080248417798429728 0.032099367119371891 0.0059407125518191606 0.001436023296264465 0.015933020382362884 0.0044448340122471564
leaf_count=574 30 1 15 6 31 21 233 65
internal_value=0.0248863 -0.00817189 0.0500796 0.0500978 0.0500032 0.0500017 0.0500017 0.0500017
internal_weight=0.241174 0.104306 0.136869 0.0445364 0.012437 0.0566203 0.0551843 0.0064963
internal_count=976 133 843 132 126 828 807 95
is_linear=0
shrinkage=0.1


Tree=69
num_leaves=9
num_cat=0
split_feature=2 0 0 0 4 0 0 0
split_gain=0.020086 0.0263894 5.85085e-08 1.54503e-08 2.94071e-12 1.73472e-18 1.73472e-18 2.1684e-19
threshold=1.0000000180025095e-35 27.205007553100589 22.263137817382816 22.263137817382816 4.5000000000000009 12.401374816894533 11.023791790008547 9.8522000312805194
decision_type=2 2 2 2 2 2 2 2
left_child=2 3 5 4 7 6 -1 -2
right_child=1 -3 -4 -5 -6 -7 -8 -9
leaf_value=-0.050001713065013588 -0.050001713064990488 0.051590829438832801 -0.050134469963862484 -0.05013446996386154 -0.050004791512984328 -0.050001713064980073 -0.050001713065011721 -0.05000171306500361
leaf_weight=0.039251303431228735 0.0020514618518063799 0.059769336134195328 0.080248417798429728 0.032099367119371891 0.0059407125518191606 0.001436023296264465 0.015933020382362884 0.0044448340122471564
leaf_count=574 30 1 15 6 31 21 233 65
internal_value=-0.0248863 0.00817189 -0.0500796 -0.0500978 -0.0500032 -0.0500017 -0.0500017 -0.0500017
internal_weight=0.241174 0.104306 0.136869 0.0445364 0.012437 0.0566203 0.0551843 0.0064963
internal_count=976 133 843 132 126 828 807 95
is_linear=0
shrinkage=0.1


Tree=70
num_leaves=7
num_cat=0
split_feature=2 0 0 0 4 0
split_gain=0.0181773 0.0238322 4.3326e-08 1.14404e-08 2.18274e-12 1.73472e-18
threshold=1.0000000180025095e-35 27.205007553100589 22.263137817382816 22.263137817382816 4.5000000000000009 9.8522000312805194
decision_type=2 2 2 2 2 2
left_child=2 3 5 4 -2 -1
right_child=1 -3 -4 -5 -6 -7
leaf_value=0.050001546328581684 0.050001546328584091 -0.051434868193441591 0.050121638402343141 0.050121638402342107 0.050004334503122361 0.050001546328591523
leaf_weight=0.0045787385606672606 0.005878110314370133 0.054237160831689835 0.072629414498806 0.0290517657995224 0.0053754255932290107 0.046653633442474529
leaf_count=74 95 1 15 6 31 754
internal_value=0.0248674 -0.00815348 0.050072 0.0500885 0.0500029 0.0500015
internal_weight=0.218404 0.0945425 0.123862 0.0403053 0.0112535 0.0512324
internal_count=976 133 843 132 126 828
is_linear=0
shrinkage=0.1


Tree=71
num_leaves=7
num_cat=0
split_feature=2 0 0 0 4 0
split_gain=0.0181773 0.0238322 4.3326e-08 1.14404e-08 2.18274e-12 1.73472e-18
threshold=1.0000000180025095e-35 27.205007553100589 22.263137817382816 22.263137817382816 4.5000000000000009 9.8522000312805194
decision_type=2 2 2 2 2 2
left_child=2 3 5 4 -2 -1
right_child=1 -3 -4 -5 -6 -7
leaf_value=-0.050001546328581684 -0.050001546328584091 0.051434868193441591 -0.050121638402343141 -0.050121638402342107 -0.050004334503122361 -0.050001546328591523
leaf_weight=0.0045787385606672606 0.005878110314370133 0.054237160831689835 0.072629414498806 0.0290517657995224 0.0053754255932290107 0.046653633442474529
leaf_count=74 95 1 15 6 31 754
internal_value=-0.0248674 0.00815348 -0.050072 -0.0500885 -0.0500029 -0.0500015
internal_weight=0.218404 0.0945425 0.123862 0.0403053 0.0112535 0.0512324
internal_count=976 133 843 132 126 828
is_linear=0
shrinkage=0.1


Tree=72
num_leaves=6
num_cat=0
split_feature=2 0 0 0 4
split_gain=0.0164497 0.0215269 3.20828e-08 8.47131e-09 1.61703e-12
threshold=1.0000000180025095e-35 27.205007553100589 22.263137817382816 22.263137817382816 4.5000000000000009
decision_type=2 2 2 2 2
left_child=2 3 -1 4 -2
right_child=1 -3 -4 -5 -6
leaf_value=0.050001400301580345 0.050001400301572019 -0.051294602553808522 0.050110035538662258 0.050110035538661113 0.050003923154391353
leaf_weight=0.04635709329158999 0.0053187486264505424 0.049203172326087952 0.065732253715395927 0.026292901486158371 0.0048639244050718844
leaf_count=828 95 1 15 6 31
internal_value=0.0248504 -0.00813689 0.0500651 0.05008 0.0500026
internal_weight=0.197768 0.0856787 0.112089 0.0364756 0.0101827
internal_count=976 133 843 132 126
is_linear=0
shrinkage=0.1


Tree=73
num_leaves=6
num_cat=0
split_feature=2 0 0 0 4
split_gain=0.0164497 0.0215269 3.20828e-08 8.47131e-09 1.61703e-12
threshold=1.0000000180025095e-35 27.205007553100589 22.263137817382816 22.263137817382816 4.5000000000000009
decision_type=2 2 2 2 2
left_child=2 3 -1 4 -2
right_child=1 -3 -4 -5 -6
leaf_value=-0.050001400301580345 -0.050001400301572019 0.051294602553808522 -0.050110035538662258 -0.050110035538661113 -0.050003923154391353
leaf_weight=0.04635709329158999 0.0053187486264505424 0.049203172326087952 0.065732253715395927 0.026292901486158371 0.0048639244050718844
leaf_count=828 95 1 15 6 31
internal_value=-0.0248504 0.00813689 -0.0500651 -0.05008 -0.0500026
internal_weight=0.197768 0.0856787 0.112089 0.0364756 0.0101827
internal_count=976 133 843 132 126
is_linear=0
shrinkage=0.1


Tree=74
num_leaves=7
num_cat=0
split_feature=2 0 0 0 4 0
split_gain=0.0148861 0.0194479 2.37599e-08 6.27344e-09 1.19933e-12 1.73472e-18
threshold=1.0000000180025095e-35 27.205007553100589 22.263137817382816 22.263137817382816 4.5000000000000009 12.401374816894533
decision_type=2 2 2 2 2 2
left_child=2 3 5 4 -2 -1
right_child=1 -3 -4 -5 -6 -7
leaf_value=0.050001267498206506 0.050001267498197347 -0.051168373450751384 0.050099544990859529 0.050099544990858259 0.050003551605170685 0.050001267498160765
leaf_weight=0.040881898468796862 0.0048126150613825303 0.044625107198953629 0.059488825500011444 0.023795530200004578 0.0044010916026309133 0.0010638412240950848
leaf_count=807 95 1 15 6 31 21
internal_value=0.0248349 -0.00812194 0.0500589 0.0500724 0.0500024 0.0500013
internal_weight=0.179069 0.0776343 0.101435 0.0330092 0.00921371 0.0419457
internal_count=976 133 843 132 126 828
is_linear=0
shrinkage=0.1


Tree=75
num_leaves=7
num_cat=0
split_feature=2 0 0 0 4 0
split_gain=0.0148861 0.0194479 2.37599e-08 6.27344e-09 1.19933e-12 1.73472e-18
threshold=1.0000000180025095e-35 27.205007553100589 22.263137817382816 22.263137817382816 4.5000000000000009 12.401374816894533
decision_type=2 2 2 2 2 2
left_child=2 3 5 4 -2 -1
right_child=1 -3 -4 -5 -6 -7
leaf_value=-0.050001267498206506 -0.050001267498197347 0.051168373450751384 -0.050099544990859529 -0.050099544990858259 -0.050003551605170685 -0.050001267498160765
leaf_weight=0.040881898468796862 0.0048126150613825303 0.044625107198953629 0.059488825500011444 0.023795530200004578 0.0044010916026309133 0.0010638412240950848
leaf_count=807 95 1 15 6 31 21
internal_value=-0.0248349 0.00812194 -0.0500589 -0.0500724 -0.0500024 -0.0500013
internal_weight=0.179069 0.0776343 0.101435 0.0330092 0.00921371 0.0419457
internal_count=976 133 843 132 126 828
is_linear=0
shrinkage=0.1


Tree=76
num_leaves=6
num_cat=0
split_feature=2 0 0 0 4
split_gain=0.0134709 0.0175723 1.75957e-08 4.64585e-09 8.86666e-13
threshold=1.0000000180025095e-35 27.205007553100589 22.263137817382816 22.263137817382816 4.5000000000000009
decision_type=2 2 2 2 2
left_child=2 3 -1 4 -2
right_child=1 -3 -4 -5 -6
leaf_value=0.050001146829764392 0.05000114682975422 -0.05105472222569897 0.050090053248312241 0.050090053248310853 0.050003211450013213
leaf_weight=0.037954160710796714 0.0043546440429054201 0.040463775396347046 0.053837397135794163 0.021534958854317665 0.0039822979015298188
leaf_count=828 95 1 15 6 31
internal_value=0.024821 -0.00810847 0.0500533 0.0500655 0.0500021
internal_weight=0.162127 0.0703357 0.0917916 0.0298719 0.00833694
internal_count=976 133 843 132 126
is_linear=0
shrinkage=0.1


Tree=77
num_leaves=6
num_cat=0
split_feature=2 0 0 0 4
split_gain=0.0134709 0.0175723 1.75957e-08 4.64585e-09 8.86666e-13
threshold=1.0000000180025095e-35 27.205007553100589 22.263137817382816 22.263137817382816 4.5000000000000009
decision_type=2 2 2 2 2
left_child=2 3 -1 4 -2
right_child=1 -3 -4 -5 -6
leaf_value=-0.050001146829764392 -0.05000114682975422 0.05105472222569897 -0.050090053248312241 -0.050090053248310853 -0.050003211450013213
leaf_weight=0.037954160710796714 0.0043546440429054201 0.040463775396347046 0.053837397135794163 0.021534958854317665 0.0039822979015298188
leaf_count=828 95 1 15 6 31
internal_value=-0.024821 0.00810847 -0.0500533 -0.0500655 -0.0500021
internal_weight=0.162127 0.0703357 0.0917916 0.0298719 0.00833694
internal_count=976 133 843 132 126
is_linear=0
shrinkage=0.1


Tree=78
num_leaves=6
num_cat=0
split_feature=2 0 0 0 4
split_gain=0.0121902 0.0158799 1.30324e-08 3.44073e-09 6.59976e-13
threshold=1.0000000180025095e-35 27.205007553100589 22.263137817382816 22.263137817382816 4.5000000000000009
decision_type=2 2 2 2 2
left_child=2 3 -1 4 -2
right_child=1 -3 -4 -5 -6
leaf_value=0.050001035003101803 0.050001035003090583 -0.050952345215148756 0.050081469433173723 0.050081469433172182 0.050002907573755723
leaf_weight=0.034342416969593614 0.0039402531547239042 0.036682959645986557 0.048722015926614404 0.019488806370645761 0.0036033531723660417
leaf_count=828 95 1 15 6 31
internal_value=0.0248084 -0.00809632 0.0500482 0.0500593 0.0500019
internal_weight=0.14678 0.0637154 0.0830644 0.0270324 0.00754361
internal_count=976 133 843 132 126
is_linear=0
shrinkage=0.1


Tree=79
num_leaves=6
num_cat=0
split_feature=2 0 0 0 4
split_gain=0.0121902 0.0158799 1.30324e-08 3.44073e-09 6.59976e-13
threshold=1.0000000180025095e-35 27.205007553100589 22.263137817382816 22.263137817382816 4.5000000000000009
decision_type=2 2 2 2 2
left_child=2 3 -1 4 -2
right_child=1 -3 -4 -5 -6
leaf_value=-0.050001035003101803 -0.050001035003090583 0.050952345215148756 -0.050081469433173723 -0.050081469433172182 -0.050002907573755723
leaf_weight=0.034342416969593614 0.0039402531547239042 0.036682959645986557 0.048722015926614404 0.019488806370645761 0.0036033531723660417
leaf_count=828 95 1 15 6 31
internal_value=-0.0248084 0.00809632 -0.0500482 -0.0500593 -0.0500019
internal_weight=0.14678 0.0637154 0.0830644 0.0270324 0.00754361
internal_count=976 133 843 132 126
is_linear=0
shrinkage=0.1


Tree=80
num_leaves=7
num_cat=0
split_feature=2 0 0 0 4 0
split_gain=0.0110311 0.0143522 9.65077e-09 2.54795e-09 4.87534e-13 8.67362e-19
threshold=1.0000000180025095e-35 27.205007553100589 22.263137817382816 22.263137817382816 4.5000000000000009 11.589474678039553
decision_type=2 2 2 2 2 2
left_child=2 3 5 4 -2 -1
right_child=1 -3 -4 -5 -6 -7
leaf_value=0.050000940286110879 0.050000940286098576 -0.050860073664897802 0.050073703489869018 0.050073703489867311 0.050002632248326677 0.050000940286086482
leaf_weight=0.02916036098395125 0.0035652951009978997 0.033249266445636749 0.044091992313042283 0.017636796925216913 0.0032604658408672549 0.0019140005279041352
leaf_count=777 95 1 15 6 31 51
internal_value=0.024797 -0.00808535 0.0500436 0.0500536 0.0500017 0.0500009
internal_weight=0.132878 0.0577118 0.0751664 0.0244626 0.00682576 0.0310744
internal_count=976 133 843 132 126 828
is_linear=0
shrinkage=0.1


Tree=81
num_leaves=7
num_cat=0
split_feature=2 0 0 0 4 0
split_gain=0.0110311 0.0143522 9.65077e-09 2.54795e-09 4.87534e-13 8.67362e-19
threshold=1.0000000180025095e-35 27.205007553100589 22.263137817382816 22.263137817382816 4.5000000000000009 11.589474678039553
decision_type=2 2 2 2 2 2
left_child=2 3 5 4 -2 -1
right_child=1 -3 -4 -5 -6 -7
leaf_value=-0.050000940286110879 -0.050000940286098576 0.050860073664897802 -0.050073703489869018 -0.050073703489867311 -0.050002632248326677 -0.050000940286086482
leaf_weight=0.02916036098395125 0.0035652951009978997 0.033249266445636749 0.044091992313042283 0.017636796925216913 0.0032604658408672549 0.0019140005279041352
leaf_count=777 95 1 15 6 31 51
internal_value=-0.024797 0.00808535 -0.0500436 -0.0500536 -0.0500017 -0.0500009
internal_weight=0.132878 0.0577118 0.0751664 0.0244626 0.00682576 0.0310744
internal_count=976 133 843 132 126 828
is_linear=0
shrinkage=0.1


Tree=82
num_leaves=6
num_cat=0
split_feature=2 0 0 0 4
split_gain=0.00998218 0.012973 7.14836e-09 1.88723e-09 3.61377e-13
threshold=1.0000000180025095e-35 27.205007553100589 22.263137817382816 22.263137817382816 4.5000000000000009
decision_type=2 2 2 2 2
left_child=2 3 -1 4 -2
right_child=1 -3 -4 -5 -6
leaf_value=0.050000846338464834 0.050000846338451123 -0.050776891421760777 0.050066678261108825 0.050066678261106945 0.050002377715816199
leaf_weight=0.028117293390096165 0.0032260179614240761 0.030131956562399864 0.03990139695815742 0.015960558783262968 0.0029502056713681668
leaf_count=828 95 1 15 6 31
internal_value=0.0247867 -0.00807546 0.0500395 0.0500485 0.0500016
internal_weight=0.120287 0.0522687 0.0680187 0.0221368 0.00617622
internal_count=976 133 843 132 126
is_linear=0
shrinkage=0.1


Tree=83
num_leaves=6
num_cat=0
split_feature=2 0 0 0 4
split_gain=0.00998218 0.012973 7.14836e-09 1.88723e-09 3.61377e-13
threshold=1.0000000180025095e-35 27.205007553100589 22.263137817382816 22.263137817382816 4.5000000000000009
decision_type=2 2 2 2 2
left_child=2 3 -1 4 -2
right_child=1 -3 -4 -5 -6
leaf_value=-0.050000846338464834 -0.050000846338451123 0.050776891421760777 -0.050066678261108825 -0.050066678261106945 -0.050002377715816199
leaf_weight=0.028117293390096165 0.0032260179614240761 0.030131956562399864 0.03990139695815742 0.015960558783262968 0.0029502056713681668
leaf_count=828 95 1 15 6 31
internal_value=-0.0247867 0.00807546 -0.0500395 -0.0500485 -0.0500016
internal_weight=0.120287 0.0522687 0.0680187 0.0221368 0.00617622
internal_count=976 133 843 132 126
is_linear=0
shrinkage=0.1


Tree=84
num_leaves=7
num_cat=0
split_feature=2 0 0 0 4 0
split_gain=0.00903291 0.0117275 5.29464e-09 1.39782e-09 2.67471e-13 8.67362e-19
threshold=1.0000000180025095e-35 27.205007553100589 22.263137817382816 22.263137817382816 4.5000000000000009 10.483791828155519
decision_type=2 2 2 2 2 2
left_child=2 3 5 4 -2 -1
right_child=1 -3 -4 -5 -6 -7
leaf_value=0.050000769589513328 0.050000769589499228 -0.050701868627448458 0.050060329679086316 0.050060329679084241 0.050002154603333585 0.050000769589510718
leaf_weight=0.01656163250663667 0.002919026137533364 0.027302810922265053 0.036108624190092087 0.014443449676036835 0.0026694679036154412 0.0088799847762857098
leaf_count=539 95 1 15 6 31 289
internal_value=0.0247774 -0.00806652 0.0500357 0.0500439 0.0500014 0.0500008
internal_weight=0.108885 0.0473348 0.0615502 0.0200319 0.00558849 0.0254416
internal_count=976 133 843 132 126 828
is_linear=0
shrinkage=0.1


Tree=85
num_leaves=7
num_cat=0
split_feature=2 0 0 0 4 0
split_gain=0.00903291 0.0117275 5.29464e-09 1.39782e-09 2.67471e-13 8.67362e-19
threshold=1.0000000180025095e-35 27.205007553100589 22.263137817382816 22.263137817382816 4.5000000000000009 10.483791828155519
decision_type=2 2 2 2 2 2
left_child=2 3 5 4 -2 -1
right_child=1 -3 -4 -5 -6 -7
leaf_value=-0.050000769589513328 -0.050000769589499228 0.050701868627448458 -0.050060329679086316 -0.050060329679084241 -0.050002154603333585 -0.050000769589510718
leaf_weight=0.01656163250663667 0.002919026137533364 0.027302810922265053 0.036108624190092087 0.014443449676036835 0.0026694679036154412 0.0088799847762857098
leaf_count=539 95 1 15 6 31 289
internal_value=-0.0247774 0.00806652 -0.0500357 -0.0500439 -0.0500014 -0.0500008
internal_weight=0.108885 0.0473348 0.0615502 0.0200319 0.00558849 0.0254416
internal_count=976 133 843 132 126 828
is_linear=0
shrinkage=0.1


Tree=86
num_leaves=7
num_cat=0
split_feature=2 0 0 0 4 0
split_gain=0.00817385 0.0106025 3.92158e-09 1.03521e-09 1.99709e-13 8.67362e-19
threshold=1.0000000180025095e-35 27.205007553100589 22.263137817382816 22.263137817382816 4.5000000000000009 11.274474620819094
decision_type=2 2 2 2 2 2
left_child=2 3 5 4 -2 -1
right_child=1 -3 -4 -5 -6 -7
leaf_value=0.050000693506409247 0.050000693506392684 -0.050634182456623933 0.050054579038654949 0.050054579038652652 0.050001951646762979 0.050000693506384378
leaf_weight=0.021185588142543565 0.0026412478655402074 0.024735948070883751 0.032675997354090214 0.013070398941636086 0.0024154437051038258 0.0018349722013226702
leaf_count=762 95 1 15 6 31 66
internal_value=0.0247689 -0.00805846 0.0500323 0.0500397 0.0500013 0.0500007
internal_weight=0.0985596 0.042863 0.0556966 0.0181271 0.00505669 0.0230206
internal_count=976 133 843 132 126 828
is_linear=0
shrinkage=0.1


Tree=87
num_leaves=7
num_cat=0
split_feature=2 0 0 0 4 0
split_gain=0.00817385 0.0106025 3.92158e-09 1.03521e-09 1.99709e-13 8.67362e-19
threshold=1.0000000180025095e-35 27.205007553100589 22.263137817382816 22.263137817382816 4.5000000000000009 11.274474620819094
decision_type=2 2 2 2 2 2
left_child=2 3 5 4 -2 -1
right_child=1 -3 -4 -5 -6 -7
leaf_value=-0.050000693506409247 -0.050000693506392684 0.050634182456623933 -0.050054579038654949 -0.050054579038652652 -0.050001951646762979 -0.050000693506384378
leaf_weight=0.021185588142543565 0.0026412478655402074 0.024735948070883751 0.032675997354090214 0.013070398941636086 0.0024154437051038258 0.0018349722013226702
leaf_count=762 95 1 15 6 31 66
internal_value=-0.0247689 0.00805846 -0.0500323 -0.0500397 -0.0500013 -0.0500007
internal_weight=0.0985596 0.042863 0.0556966 0.0181271 0.00505669 0.0230206
internal_count=976 133 843 132 126 828
is_linear=0
shrinkage=0.1


Tree=88
num_leaves=6
num_cat=0
split_feature=2 0 0 0 4
split_gain=0.00739644 0.0095862 2.90474e-09 7.66822e-10 1.47237e-13
threshold=1.0000000180025095e-35 27.205007553100589 22.263137817382816 22.263137817382816 4.5000000000000009
decision_type=2 2 2 2 2
left_child=2 3 -1 4 -2
right_child=1 -3 -4 -5 -6
leaf_value=0.050000629061011242 0.050000629060992743 -0.050573107751071225 0.050049382080291374 0.050049382080288841 0.050001764732813085
leaf_weight=0.020829890556342434 0.0023899029019958098 0.022407665848731995 0.029569377657026052 0.011827751062810421 0.0021855915256310254
leaf_count=828 95 1 15 6 31
internal_value=0.0247613 -0.00805118 0.0500292 0.0500359 0.0500012
internal_weight=0.0892102 0.0388109 0.0503993 0.0164032 0.00457549
internal_count=976 133 843 132 126
is_linear=0
shrinkage=0.1


Tree=89
num_leaves=6
num_cat=0
split_feature=2 0 0 0 4
split_gain=0.00739644 0.0095862 2.90474e-09 7.66822e-10 1.47237e-13
threshold=1.0000000180025095e-35 27.205007553100589 22.263137817382816 22.263137817382816 4.5000000000000009
decision_type=2 2 2 2 2
left_child=2 3 -1 4 -2
right_child=1 -3 -4 -5 -6
leaf_value=-0.050000629061011242 -0.050000629060992743 0.050573107751071225 -0.050049382080291374 -0.050049382080288841 -0.050001764732813085
leaf_weight=0.020829890556342434 0.0023899029019958098 0.022407665848731995 0.029569377657026052 0.011827751062810421 0.0021855915256310254
leaf_count=828 95 1 15 6 31
internal_value=-0.0247613 0.00805118 -0.0500292 -0.0500359 -0.0500012
internal_weight=0.0892102 0.0388109 0.0503993 0.0164032 0.00457549
internal_count=976 133 843 132 126
is_linear=0
shrinkage=0.1


Tree=90
num_leaves=7
num_cat=0
split_feature=2 0 0 0 4 0
split_gain=0.00669294 0.00866798 2.15122e-09 5.67919e-10 1.0861e-13 8.67362e-19
threshold=1.0000000180025095e-35 27.205007553100589 22.263137817382816 22.263137817382816 4.5000000000000009 10.483791828155519
decision_type=2 2 2 2 2 2
left_child=2 3 5 4 -2 -1
right_child=1 -3 -4 -5 -6 -7
leaf_value=0.050000571358292001 0.050000571358272933 -0.050517978677720468 0.05004467728784269 0.05004467728783988 0.050001596757371036 0.050000571358288483
leaf_weight=0.012269205437405617 0.0021624759119731616 0.02029629610478878 0.026757867308333516 0.010703146923333406 0.0019776113840634935 0.0065784793532657196
leaf_count=539 95 1 15 6 31 289
internal_value=0.0247545 -0.0080446 0.0500264 0.0500325 0.0500011 0.0500006
internal_weight=0.0807451 0.0351395 0.0456056 0.0148432 0.00414009 0.0188477
internal_count=976 133 843 132 126 828
is_linear=0
shrinkage=0.1


Tree=91
num_leaves=7
num_cat=0
split_feature=2 0 0 0 4 0
split_gain=0.00669294 0.00866798 2.15122e-09 5.67919e-10 1.0861e-13 8.67362e-19
threshold=1.0000000180025095e-35 27.205007553100589 22.263137817382816 22.263137817382816 4.5000000000000009 10.483791828155519
decision_type=2 2 2 2 2 2
left_child=2 3 5 4 -2 -1
right_child=1 -3 -4 -5 -6 -7
leaf_value=-0.050000571358292001 -0.050000571358272933 0.050517978677720468 -0.05004467728784269 -0.05004467728783988 -0.050001596757371036 -0.050000571358288483
leaf_weight=0.012269205437405617 0.0021624759119731616 0.02029629610478878 0.026757867308333516 0.010703146923333406 0.0019776113840634935 0.0065784793532657196
leaf_count=539 95 1 15 6 31 289
internal_value=-0.0247545 0.0080446 -0.0500264 -0.0500325 -0.0500011 -0.0500006
internal_weight=0.0807451 0.0351395 0.0456056 0.0148432 0.00414009 0.0188477
internal_count=976 133 843 132 126 828
is_linear=0
shrinkage=0.1


Tree=92
num_leaves=6
num_cat=0
split_feature=2 0 0 0 4
split_gain=0.00605632 0.00783823 1.59353e-09 4.20653e-10 8.10192e-14
threshold=1.0000000180025095e-35 27.205007553100589 22.263137817382816 22.263137817382816 4.5000000000000009
decision_type=2 2 2 2 2
left_child=2 3 -1 4 -2
right_child=1 -3 -4 -5 -6
leaf_value=0.050000512223459331 0.050000512223436683 -0.050468198561055902 0.050040418590775598 0.050040418590772497 0.050001443260060889
leaf_weight=0.017054108910087962 0.0019566912396840061 0.018382040783762932 0.024213474243879318 0.0096853896975517273 0.0017894218617584556
leaf_count=828 95 1 15 6 31
internal_value=0.0247482 -0.00803866 0.0500239 0.0500294 0.050001
internal_weight=0.0730811 0.0318135 0.0412676 0.0134315 0.00374611
internal_count=976 133 843 132 126
is_linear=0
shrinkage=0.1


Tree=93
num_leaves=6
num_cat=0
split_feature=2 0 0 0 4
split_gain=0.00605632 0.00783823 1.59353e-09 4.20653e-10 8.10192e-14
threshold=1.0000000180025095e-35 27.205007553100589 22.263137817382816 22.263137817382816 4.5000000000000009
decision_type=2 2 2 2 2
left_child=2 3 -1 4 -2
right_child=1 -3 -4 -5 -6
leaf_value=-0.050000512223459331 -0.050000512223436683 0.050468198561055902 -0.050040418590775598 -0.050040418590772497 -0.050001443260060889
leaf_weight=0.017054108910087962 0.0019566912396840061 0.018382040783762932 0.024213474243879318 0.0096853896975517273 0.0017894218617584556
leaf_count=828 95 1 15 6 31
internal_value=-0.0247482 0.00803866 -0.0500239 -0.0500294 -0.050001
internal_weight=0.0730811 0.0318135 0.0412676 0.0134315 0.00374611
internal_count=976 133 843 132 126
is_linear=0
shrinkage=0.1


Tree=94
num_leaves=10
num_cat=0
split_feature=2 0 0 0 4 0 0 4 4
split_gain=0.00548022 0.00708833 1.18059e-09 3.11644e-10 6.00118e-14 4.33681e-19 8.67362e-19 4.33681e-19 4.33681e-19
threshold=1.0000000180025095e-35 27.205007553100589 22.263137817382816 22.263137817382816 4.5000000000000009 11.274474620819094 10.483791828155519 15.500000000000002 9.5000000000000018
decision_type=2 2 2 2 2 2 2 2 2
left_child=2 3 5 4 -2 6 7 8 -1
right_child=1 -3 -4 -5 -6 -7 -8 -9 -10
leaf_value=0.05000046361142433 0.050000463611403284 -0.050423242178755427 0.050036572958387426 0.050036572958384012 0.050001305986478943 0.050000463611390857 0.0500004636114195 0.050000463611386797 0.050000463611406469
leaf_weight=0.0069328624304034747 0.0017704890615277699 0.016646832227706909 0.021910857176408172 0.0087643428705632687 0.0016191401409741957 0.0012300239795877141 0.0041559901128493957 0.0011182036178070129 0.0019941297850891715
leaf_count=372 95 1 15 6 31 66 223 60 107
internal_value=0.0247426 -0.00803329 0.0500217 0.0500266 0.0500009 0.0500005 0.0500005 0.0500005 0.0500005
internal_weight=0.0661429 0.0288008 0.0373421 0.012154 0.00338963 0.0154312 0.0142012 0.0100452 0.00892699
internal_count=976 133 843 132 126 828 762 539 479
is_linear=0
shrinkage=0.1


Tree=95
num_leaves=10
num_cat=0
split_feature=2 0 0 0 4 0 0 4 4
split_gain=0.00548022 0.00708833 1.18059e-09 3.11644e-10 6.00118e-14 4.33681e-19 8.67362e-19 4.33681e-19 4.33681e-19
threshold=1.0000000180025095e-35 27.205007553100589 22.263137817382816 22.263137817382816 4.5000000000000009 11.274474620819094 10.483791828155519 15.500000000000002 9.5000000000000018
decision_type=2 2 2 2 2 2 2 2 2
left_child=2 3 5 4 -2 6 7 8 -1
right_child=1 -3 -4 -5 -6 -7 -8 -9 -10
leaf_value=-0.05000046361142433 -0.050000463611403284 0.050423242178755427 -0.050036572958387426 -0.050036572958384012 -0.050001305986478943 -0.050000463611390857 -0.0500004636114195 -0.050000463611386797 -0.050000463611406469
leaf_weight=0.0069328624304034747 0.0017704890615277699 0.016646832227706909 0.021910857176408172 0.0087643428705632687 0.0016191401409741957 0.0012300239795877141 0.0041559901128493957 0.0011182036178070129 0.0019941297850891715
leaf_count=372 95 1 15 6 31 66 223 60 107
internal_value=-0.0247426 0.00803329 -0.0500217 -0.0500266 -0.0500009 -0.0500005 -0.0500005 -0.0500005 -0.0500005
internal_weight=0.0661429 0.0288008 0.0373421 0.012154 0.00338963 0.0154312 0.0142012 0.0100452 0.00892699
internal_count=976 133 843 132 126 828 762 539 479
is_linear=0
shrinkage=0.1


Tree=96
num_leaves=8
num_cat=0
split_feature=2 0 0 0 4 0 4
split_gain=0.00495891 0.00641052 8.74087e-10 2.30777e-10 4.36823e-14 4.33681e-19 4.33681e-19
threshold=1.0000000180025095e-35 27.205007553100589 22.263137817382816 22.263137817382816 4.5000000000000009 11.274474620819094 14.500000000000002
decision_type=2 2 2 2 2 2 2
left_child=2 3 5 4 -2 6 -1
right_child=1 -3 -4 -5 -6 -7 -8
leaf_value=0.05000042607565313 0.050000426075626429 -0.050382644140575229 0.050033089027624836 0.050033089027621061 0.050001181610139514 0.050000426075612697 0.050000426075630433
leaf_weight=0.011011683567630826 0.0016020060320443017 0.015074197202920914 0.019827072392217815 0.007930828956887126 0.0014650620432803407 0.0011129726117360414 0.0018380911315034618
leaf_count=653 95 1 15 6 31 66 109
internal_value=0.0247375 -0.00802844 0.0500196 0.0500241 0.0500008 0.0500004 0.0500004
internal_weight=0.0598619 0.0260721 0.0337898 0.0109979 0.00306707 0.0139627 0.0128498
internal_count=976 133 843 132 126 828 762
is_linear=0
shrinkage=0.1


Tree=97
num_leaves=8
num_cat=0
split_feature=2 0 0 0 4 0 4
split_gain=0.00495891 0.00641052 8.74087e-10 2.30777e-10 4.36823e-14 4.33681e-19 4.33681e-19
threshold=1.0000000180025095e-35 27.205007553100589 22.263137817382816 22.263137817382816 4.5000000000000009 11.274474620819094 14.500000000000002
decision_type=2 2 2 2 2 2 2
left_child=2 3 5 4 -2 6 -1
right_child=1 -3 -4 -5 -6 -7 -8
leaf_value=-0.05000042607565313 -0.050000426075626429 0.050382644140575229 -0.050033089027624836 -0.050033089027621061 -0.050001181610139514 -0.050000426075612697 -0.050000426075630433
leaf_weight=0.011011683567630826 0.0016020060320443017 0.015074197202920914 0.019827072392217815 0.007930828956887126 0.0014650620432803407 0.0011129726117360414 0.0018380911315034618
leaf_count=653 95 1 15 6 31 66 109
internal_value=-0.0247375 0.00802844 -0.0500196 -0.0500241 -0.0500008 -0.0500004 -0.0500004
internal_weight=0.0598619 0.0260721 0.0337898 0.0109979 0.00306707 0.0139627 0.0128498
internal_count=976 133 843 132 126 828 762
is_linear=0
shrinkage=0.1


Tree=98
num_leaves=7
num_cat=0
split_feature=2 0 0 0 4 4
split_gain=0.00448717 0.00579782 6.47667e-10 1.70982e-10 3.26034e-14 8.67362e-19
threshold=1.0000000180025095e-35 27.205007553100589 22.263137817382816 22.263137817382816 4.5000000000000009 11.500000000000002
decision_type=2 2 2 2 2 2
left_child=2 3 5 4 -2 -1
right_child=1 -3 -4 -5 -6 -7
leaf_value=0.050000381477315572 0.050000381477286505 -0.050345965761575767 0.050029938677293606 0.050029938677289422 0.050001067672538146 0.050000381477306358
leaf_weight=0.0092161251159268431 0.0014495561026706127 0.013649129308760166 0.017941350233741105 0.0071765400934964418 0.0013256457896204665 0.003417900705244393
leaf_count=604 95 1 15 6 31 224
internal_value=0.0247329 -0.00802405 0.0500177 0.0500218 0.0500007 0.0500004
internal_weight=0.0541762 0.0236009 0.0305754 0.00995174 0.0027752 0.012634
internal_count=976 133 843 132 126 828
is_linear=0
shrinkage=0.1


Tree=99
num_leaves=7
num_cat=0
split_feature=2 0 0 0 4 4
split_gain=0.00448717 0.00579782 6.47667e-10 1.70982e-10 3.26034e-14 8.67362e-19
threshold=1.0000000180025095e-35 27.205007553100589 22.263137817382816 22.263137817382816 4.5000000000000009 11.500000000000002
decision_type=2 2 2 2 2 2
left_child=2 3 5 4 -2 -1
right_child=1 -3 -4 -5 -6 -7
leaf_value=-0.050000381477315572 -0.050000381477286505 0.050345965761575767 -0.050029938677293606 -0.050029938677289422 -0.050001067672538146 -0.050000381477306358
leaf_weight=0.0092161251159268431 0.0014495561026706127 0.013649129308760166 0.017941350233741105 0.0071765400934964418 0.0013256457896204665 0.003417900705244393
leaf_count=604 95 1 15 6 31 224
internal_value=-0.0247329 0.00802405 -0.0500177 -0.0500218 -0.0500007 -0.0500004
internal_weight=0.0541762 0.0236009 0.0305754 0.00995174 0.0027752 0.012634
internal_count=976 133 843 132 126 828
is_linear=0
shrinkage=0.1


Tree=100
num_leaves=7
num_cat=0
split_feature=2 0 0 0 4 0
split_gain=0.00406029 0.0052439 4.79577e-10 1.26598e-10 2.42837e-14 4.33681e-19
threshold=1.0000000180025095e-35 27.205007553100589 22.263137817382816 22.263137817382816 4.5000000000000009 11.023791790008547
decision_type=2 2 2 2 2 2
left_child=2 3 5 4 -2 -1
right_child=1 -3 -4 -5 -6 -7
leaf_value=0.050000345841571509 0.050000345841539687 -0.050312824457541164 0.050027083696794622 0.050027083696789987 0.050000968412048312 0.050000345841563543
leaf_weight=0.0079249068348872242 0.0013116135005475371 0.012357964180409908 0.016234883805736899 0.0064939535222947598 0.0011994962114840746 0.0035068403067271001
leaf_count=574 95 1 15 6 31 254
internal_value=0.0247287 -0.00802009 0.050016 0.0500197 0.0500006 0.0500003
internal_weight=0.0490297 0.021363 0.0276666 0.00900506 0.00251111 0.0114317
internal_count=976 133 843 132 126 828
is_linear=0
shrinkage=0.1


Tree=101
num_leaves=7
num_cat=0
split_feature=2 0 0 0 4 0
split_gain=0.00406029 0.0052439 4.79577e-10 1.26598e-10 2.42837e-14 4.33681e-19
threshold=1.0000000180025095e-35 27.205007553100589 22.263137817382816 22.263137817382816 4.5000000000000009 11.023791790008547
decision_type=2 2 2 2 2 2
left_child=2 3 5 4 -2 -1
right_child=1 -3 -4 -5 -6 -7
leaf_value=-0.050000345841571509 -0.050000345841539687 0.050312824457541164 -0.050027083696794622 -0.050027083696789987 -0.050000968412048312 -0.050000345841563543
leaf_weight=0.0079249068348872242 0.0013116135005475371 0.012357964180409908 0.016234883805736899 0.0064939535222947598 0.0011994962114840746 0.0035068403067271001
leaf_count=574 95 1 15 6 31 254
internal_value=-0.0247287 0.00802009 -0.050016 -0.0500197 -0.0500006 -0.0500003
internal_weight=0.0490297 0.021363 0.0276666 0.00900506 0.00251111 0.0114317
internal_count=976 133 843 132 126 828
is_linear=0
shrinkage=0.1


Tree=102
num_leaves=8
num_cat=0
split_feature=2 0 0 0 4 4 4
split_gain=0.00367401 0.0047431 3.55333e-10 9.37992e-11 1.7996e-14 4.33681e-19 4.33681e-19
threshold=1.0000000180025095e-35 27.205007553100589 22.263137817382816 22.263137817382816 4.5000000000000009 14.500000000000002 10.500000000000002
decision_type=2 2 2 2 2 2 2
left_child=2 3 5 4 -2 6 -1
right_child=1 -3 -4 -5 -6 -7 -8
leaf_value=0.050000309411159599 0.050000309411124391 -0.05028288202287147 0.050024504382079053 0.050024504382073946 0.050000872832510673 0.050000309411129776 0.050000309411138338
leaf_weight=0.0072082349433912896 0.0011867977809743024 0.011188268661499023 0.014690649113617837 0.005876259645447135 0.0010853509920707438 0.0013616942960652531 0.0017739503673510626
leaf_count=577 95 1 15 6 31 109 142
internal_value=0.024725 -0.00801651 0.0500145 0.0500178 0.0500006 0.0500003 0.0500003
internal_weight=0.0443712 0.0193367 0.0250345 0.00814841 0.00227215 0.0103439 0.00898219
internal_count=976 133 843 132 126 828 719
is_linear=0
shrinkage=0.1


Tree=103
num_leaves=8
num_cat=0
split_feature=2 0 0 0 4 4 4
split_gain=0.00367401 0.0047431 3.55333e-10 9.37992e-11 1.7996e-14 4.33681e-19 4.33681e-19
threshold=1.0000000180025095e-35 27.205007553100589 22.263137817382816 22.263137817382816 4.5000000000000009 14.500000000000002 10.500000000000002
decision_type=2 2 2 2 2 2 2
left_child=2 3 5 4 -2 6 -1
right_child=1 -3 -4 -5 -6 -7 -8
leaf_value=-0.050000309411159599 -0.050000309411124391 0.05028288202287147 -0.050024504382079053 -0.050024504382073946 -0.050000872832510673 -0.050000309411129776 -0.050000309411138338
leaf_weight=0.0072082349433912896 0.0011867977809743024 0.011188268661499023 0.014690649113617837 0.005876259645447135 0.0010853509920707438 0.0013616942960652531 0.0017739503673510626
leaf_count=577 95 1 15 6 31 109 142
internal_value=-0.024725 0.00801651 -0.0500145 -0.0500178 -0.0500006 -0.0500003 -0.0500003
internal_weight=0.0443712 0.0193367 0.0250345 0.00814841 0.00227215 0.0103439 0.00898219
internal_count=976 133 843 132 126 828 719
is_linear=0
shrinkage=0.1


Tree=104
num_leaves=6
num_cat=0
split_feature=2 0 0 0 4
split_gain=0.00332447 0.00429027 2.63238e-10 6.9485e-11 1.25269e-14
threshold=1.0000000180025095e-35 27.205007553100589 22.263137817382816 22.263137817382816 3.5000000000000004
decision_type=2 2 2 2 2
left_child=2 3 -1 4 -2
right_child=1 -3 -4 -5 -6
leaf_value=0.050000281607545743 0.050000281607503028 -0.050255814571462998 0.050022173950963436 0.050022173950957788 0.05000077532436098
leaf_weight=0.0093595346988877282 0.0010399482998764134 0.010128739289939404 0.013293237425386906 0.0053172949701547623 0.0010159790545003489
leaf_count=828 92 1 15 6 34
internal_value=0.0247216 -0.00801327 0.0500131 0.0500161 0.0500005
internal_weight=0.0401547 0.017502 0.0226528 0.00737322 0.00205593
internal_count=976 133 843 132 126
is_linear=0
shrinkage=0.1


Tree=105
num_leaves=6
num_cat=0
split_feature=2 0 0 0 4
split_gain=0.00332447 0.00429027 2.63238e-10 6.9485e-11 1.25269e-14
threshold=1.0000000180025095e-35 27.205007553100589 22.263137817382816 22.263137817382816 3.5000000000000004
decision_type=2 2 2 2 2
left_child=2 3 -1 4 -2
right_child=1 -3 -4 -5 -6
leaf_value=-0.050000281607545743 -0.050000281607503028 0.050255814571462998 -0.050022173950963436 -0.050022173950957788 -0.05000077532436098
leaf_weight=0.0093595346988877282 0.0010399482998764134 0.010128739289939404 0.013293237425386906 0.0053172949701547623 0.0010159790545003489
leaf_count=828 92 1 15 6 34
internal_value=-0.0247216 0.00801327 -0.0500131 -0.0500161 -0.0500005
internal_weight=0.0401547 0.017502 0.0226528 0.00737322 0.00205593
internal_count=976 133 843 132 126
is_linear=0
shrinkage=0.1


Tree=106
num_leaves=5
num_cat=0
split_feature=2 0 0 0
split_gain=0.00300818 0.00388081 1.95092e-10 5.14931e-11
threshold=1.0000000180025095e-35 27.205007553100589 22.263137817382816 22.263137817382816
decision_type=2 2 2 2
left_child=2 3 -1 -2
right_child=1 -3 -4 -5
leaf_value=0.050000253425506735 0.050000474967862453 -0.050231355363051046 0.050020066392935963 0.050020066392929718
leaf_weight=0.0084688616188941523 0.0018602817635837701 0.0091690979897975922 0.012028699857182801 0.0048114799428731203
leaf_count=828 126 1 15 6
internal_value=0.0247185 -0.00801034 0.0500119 0.0500146
internal_weight=0.0363384 0.0158409 0.0204976 0.00667176
internal_count=976 133 843 132
is_linear=0
shrinkage=0.1


Tree=107
num_leaves=5
num_cat=0
split_feature=2 0 0 0
split_gain=0.00300818 0.00388081 1.95092e-10 5.14931e-11
threshold=1.0000000180025095e-35 27.205007553100589 22.263137817382816 22.263137817382816
decision_type=2 2 2 2
left_child=2 3 -1 -2
right_child=1 -3 -4 -5
leaf_value=-0.050000253425506735 -0.050000474967862453 0.050231355363051046 -0.050020066392935963 -0.050020066392929718
leaf_weight=0.0084688616188941523 0.0018602817635837701 0.0091690979897975922 0.012028699857182801 0.0048114799428731203
leaf_count=828 126 1 15 6
internal_value=-0.0247185 0.00801034 -0.0500119 -0.0500146
internal_weight=0.0363384 0.0158409 0.0204976 0.00667176
internal_count=976 133 843 132
is_linear=0
shrinkage=0.1


Tree=108
num_leaves=6
num_cat=0
split_feature=2 0 0 0 0
split_gain=0.00272197 0.00351053 1.44444e-10 3.81283e-11 2.1684e-19
threshold=1.0000000180025095e-35 27.205007553100589 22.263137817382816 22.263137817382816 11.023791790008547
decision_type=2 2 2 2 2
left_child=2 3 4 -2 -1
right_child=1 -3 -4 -5 -6
leaf_value=0.050000230941811635 0.050000430499416229 -0.050209244340449578 0.050018153106326402 0.050018153106319511 0.050000230941799763
leaf_weight=0.005312235773089923 0.0016832539749884754 0.008300011046230793 0.010884412913583219 0.0043537651654332876 0.0023507106034230674
leaf_count=574 126 1 15 6 254
internal_value=0.0247157 -0.0080077 0.0500107 0.0500132 0.0500002
internal_weight=0.0328844 0.014337 0.0185474 0.00603702 0.00766295
internal_count=976 133 843 132 828
is_linear=0
shrinkage=0.1


Tree=109
num_leaves=6
num_cat=0
split_feature=2 0 0 0 0
split_gain=0.00272197 0.00351053 1.44444e-10 3.81283e-11 2.1684e-19
threshold=1.0000000180025095e-35 27.205007553100589 22.263137817382816 22.263137817382816 11.023791790008547
decision_type=2 2 2 2 2
left_child=2 3 4 -2 -1
right_child=1 -3 -4 -5 -6
leaf_value=-0.050000230941811635 -0.050000430499416229 0.050209244340449578 -0.050018153106326402 -0.050018153106319511 -0.050000230941799763
